tree
version=v2
num_class=1
num_tree_per_iteration=1
label_index=0
max_feature_idx=95
objective=lambdarank
feature_names=1 2 3 4 5 6 7 8 9 10 11 12 13 14 15 21 22 23 24 25 26 27 28 29 30 31 32 33 34 35 36 37 38 39 40 46 47 48 49 50 51 52 53 54 55 56 57 58 59 60 61 62 63 64 65 96 97 98 99 100 101 102 103 104 105 106 107 108 109 110 111 112 113 114 115 116 117 118 119 120 121 122 123 124 125 126 127 128 129 130 131 132 133 134 135 136
feature_infos=[0:75] [0:6] [0:14] [0:12] [0:75] [0:1] [0:1] [0:1] [0:1] [0:1] [0:12921] [0:3233] [0:5223] [2:265] [2:12933] [0:288375] [0:102] [0:862] [0:18] [0:288375] [0:3845] [0:38] [0:206] [0:6] [0:3845] [0:3845] [0:64] [0:856] [0:8] [0:3845] [0:3845] [0:51] [0:287.33333299999998] [0:6] [0:3845] [0:49.272883] [0:3] [0:2.25] [0:1] [0:48.979591999999997] [0:1] [0:1] [0:1] [0:0.5] [0:0.653061] [0:1] [0:1] [0:1] [0:0.5] [0:0.653061] [0:1] [0:1] [0:1] [0:0.5] [0:0.653061] [0:1] [0:1] [0:1] [0:1] [0:1] [0:1] [0:1] [0:1] [0:1] [0:1] [-9.4089829999999992:284.73078099999998] [0:65.075947999999997] [0:78.020970000000005] [0:58.453885999999997] [-10.932442999999999:277.35421500000001] [-160.149259:0] [-141.71242100000001:0] [-146.69159500000001:0] [-162.903042:0] [-160.34450799999999:0] [-157.05346900000001:0] [-138.20396099999999:0] [-143.962503:0] [-161.33606900000001:0] [-157.27687499999999:0] [-163.220923:0] [-169.91323399999999:0] [-174.79303200000001:0] [-190.99748399999999:0] [-163.438492:0] [1:28] [6:1032] [-2083777989:226244459] [0:164] [100:65534] [1:65535] [1:254] [1:254] [0:7131872] [0:2348975] [0:680000001]
tree_sizes=5216 5204 5182 5200 5184 5206 5201 5203 5197 5209 5195 5225 5236 5229 5207 5229 5196 5236 5234 5233 5237 5227 5231 5232 5242 5224 5260 5239 5228 5247 5209 5253 5226 5217 5211 5239 5234 5229 5222 5225 5255 5247 5238 5225 5230 5251 5223 5256 5224 5230 5213 5247 5240 5229 5197 5251 5213 5240 5231 5213 5212 5235 5235 5222 5247 5255 5234 5200 5241 5234 5243 5204 5232 5221 5244 5215 5245 5249 5179 5251 5183 5238 5224 5235 5175 5207 5245 5230 5204 5220 5243 5223 5223 5230 5220 5266 5223 5236 5247 5236 5232 5189 5210 5227 5245 5185 5201 5077 5147 5190 5247 5185 5170

Tree=0
num_leaves=62
num_cat=0
split_feature=44 93 93 7 14 67 74 54 44 82 67 67 38 88 73 88 14 39 49 89 19 88 94 12 10 89 67 89 60 68 5 89 24 89 69 54 67 60 88 90 69 49 13 94 37 68 89 13 94 79 29 89 76 52 89 43 67 67 89 92 82
split_gain=4762.46 1443.93 1039.36 906.077 1013.82 761.798 509.135 392.492 301.646 220.117 174.839 161.705 139.565 125.914 116.03 112.794 107.431 105.294 96.7557 94.2272 108.088 92.6826 89.4263 87.9961 83.7551 81.3455 73.6936 72.5657 81.3824 63.0671 63.0313 62.1399 58.1603 56.664 50.1626 47.3743 46.3681 44.9352 43.9684 55.799 43.3287 42.8179 41.0823 40.0749 39.7904 39.1301 38.7772 37.8557 36.5037 35.2819 34.8287 34.7637 33.3703 32.8609 32.6258 30.8498 33.0994 30.214 29.8679 29.5652 31.3595
threshold=0.005153500000000001 1.0000000180025095e-35 1.0000000180025095e-35 0.43650750000000005 40.500000000000007 14.641286000000003 -16.287461499999996 0.0049285000000000015 0.016136000000000005 -9.865000499999999 18.921491500000005 21.964156500000005 0.15587050000000005 1.5000000000000002 -3.5965075 13.500000000000002 452.50000000000006 0.011233500000000002 0.013516000000000002 30301.000000000004 16.500000000000004 7.5000000000000009 7.5000000000000009 3.5000000000000004 565.50000000000011 8089.5000000000009 10.205330500000001 31453.500000000004 0.99999950000000004 13.566282000000003 0.96875000000000011 14824.500000000002 1.5000000000000002 62996.500000000007 10.541605500000001 0.0012325000000000003 5.8315165000000002 0.96343350000000016 18.500000000000004 63735.500000000007 19.235919500000005 0.0079145000000000014 4.5000000000000009 26.500000000000004 0.053043500000000007 9.1579940000000022 46755.500000000007 7.5000000000000009 8.5000000000000018 -6.1533739999999986 17.500000000000004 64211.500000000007 -14.798847999999998 0.07194650000000001 63541.500000000007 0.10620300000000001 12.635981500000002 4.7091120000000011 63267.500000000007 7.5000000000000009 -3.4090759999999993
decision_type=2 2 2 2 2 2 2 2 2 2 2 2 2 2 2 2 2 2 2 2 2 2 2 2 2 2 2 2 2 2 2 2 2 2 2 2 2 2 2 2 2 2 2 2 2 2 2 2 2 2 2 2 2 2 2 2 2 2 2 2 2
left_child=2 5 3 4 23 8 7 16 21 10 18 19 25 24 41 33 -6 -11 -5 20 42 29 -3 31 37 50 -9 28 -13 36 53 52 -32 40 -27 -18 -2 -8 -22 -40 -14 59 -7 -19 49 -16 -12 -17 -4 -26 -10 -38 -1 -20 -36 56 -34 -52 -21 60 -15
right_child=1 22 48 9 6 11 13 26 12 17 46 27 15 14 45 47 35 43 30 58 38 -23 -24 -25 44 34 -28 -29 -30 -31 32 -33 55 -35 54 -37 51 -39 39 -41 -42 -43 -44 -45 -46 -47 -48 -49 -50 -51 57 -53 -54 -55 -56 -57 -58 -59 -60 -61 -62
leaf_value=0.0085130286578623468 -0.014295597038106681 0.029078399226643296 0.022428583570742025 -0.02365800586818442 -0.029005700070872557 0.014521516083321695 -0.013584468051763813 -0.025622143597825213 -0.0062074924495702458 -0.010590880322825631 0.0017415350504555028 0.02090982704812103 0.00346851192840418 -0.025117788930472829 -0.0011390530964380482 0.041190258861901245 -0.051304030655042646 0.0065203760097236867 -0.010187364352356166 0.016304479162378829 0.011411115725473629 0.004372077228296618 0.044058971506574202 -0.017740939482272733 -0.033550882899231457 -0.0010010710175540035 -0.011659482204841741 0.031376191746372462 0.0074013547025282523 0.0058022138813161169 -0.019005568140684062 0.016860671472934258 -0.014336487171973568 0.025160160005915588 0.007072815054405635 -0.040430465456566991 -0.0069914551992281866 -0.031716401683302309 0.012350747889630307 0.044582321587590616 0.01436030882470613 -0.0088751037357825517 -0.00011277473771779876 0.025326068408108197 -0.011668387072846389 0.021997183017322394 0.023910372706244465 0.012771963964883587 0.042881160364813938 -0.018559476987800631 -0.016426336039888832 0.012666932832803547 -0.0084315478001095231 0.00086084899823159775 0.019668371814038549 0.033321156890488292 0.00017964993031358283 0.0068793804849142399 0.028906019094749061 -0.030269566310019057 -0.0075564874103808593
leaf_count=5060 23965 9890 2063 13940 12774 3816 25464 35282 23167 8302 14032 35439 17217 4447 8851 1863 20876 24722 9465 19261 45127 15778 10392 2914 18001 15138 10523 6858 11173 6048 19802 9412 7606 3121 37190 23667 36169 4015 2397 1191 10843 11839 27272 1690 2969 1566 1204 1247 2715 4856 1357 1626 4237 12305 3802 217 5620 8444 3287 5269 4628
internal_value=0 0.0812335 -0.1074 -0.118301 -0.168182 0.0610409 -0.20036 -0.263377 0.0140714 -0.0389493 -0.0726253 0.117804 0.0485364 -0.134586 -0.0807085 0.106065 -0.339143 0.0350031 -0.0997046 0.0909431 0.0719584 -0.0418968 0.311342 0.0559411 -0.173473 0.0234645 -0.180713 0.164377 0.147658 -0.0619191 -0.0783512 0.0807029 -0.112231 0.0830328 0.0487374 -0.371595 -0.0740818 -0.129131 0.103342 0.213976 0.0651138 -0.124213 0.0168449 0.0662901 -0.22773 0.0249322 0.0336762 0.273124 0.298055 -0.247001 -0.0242719 -0.0486617 0.0115752 -0.0311521 0.0687254 -0.0534872 -0.0631482 0.032023 0.151484 -0.170727 -0.129333
internal_count=723411 383078 340333 335555 216650 362796 195027 103122 206975 118905 84191 155821 123389 91905 36600 34291 57317 34714 68955 102351 79803 83586 20282 21623 55305 89098 45805 53470 46612 67808 55015 18709 33245 31181 56130 44543 61760 29479 48715 3588 28060 26183 31088 26412 25826 10417 15236 3110 4778 22857 32968 37795 9297 21770 40992 13443 13226 9801 22548 14344 9075
shrinkage=0.122283


Tree=1
num_leaves=62
num_cat=0
split_feature=93 67 74 14 38 88 89 54 90 88 93 67 89 94 67 89 74 79 68 60 13 19 82 49 89 92 10 86 78 89 49 44 44 68 94 88 91 44 86 10 68 42 54 68 85 93 88 13 5 60 67 64 69 43 40 44 60 85 44 19 13
split_gain=329888 91393.1 48024 26150.9 17603 16464.4 16485.8 14787.3 11723.7 11142 10846.3 10031.3 6753.62 6459.45 6365.61 5302.93 5121.03 4759.99 4508.3 4069.98 3681.16 4941.66 3389.51 3337.71 3227.09 3077.24 2958.92 2602.48 2579.71 2318.07 2130.3 2113.52 1972.7 1939.88 1899.34 2038.53 1895.37 1891.41 1832.56 1681.32 1629.72 1583.91 1554.23 1543.33 1494.05 1453.23 1424.68 1416.5 1395.02 1369.67 1331.24 1231.96 1164.06 1146.71 1140.16 1131.7 1115.79 1114.35 1094.68 1083.74 1073.44
threshold=1.0000000180025095e-35 14.730897000000001 -8.1322614999999985 30.500000000000004 0.15587050000000005 18.500000000000004 30301.000000000004 0.0067365000000000003 63735.500000000007 10.500000000000002 75.500000000000014 21.964156500000005 63541.500000000007 30.500000000000004 21.818035500000004 62996.500000000007 -4.2247889999999986 -13.439510499999999 12.937097000000003 0.99999950000000004 4.5000000000000009 16.500000000000004 -9.865000499999999 0.011254500000000002 18047.500000000004 2.5000000000000004 24.500000000000004 29.500000000000004 -18.829116999999997 63267.500000000007 0.022878000000000006 0.005153500000000001 0.0052650000000000014 11.770569000000002 33.500000000000007 19.500000000000004 12.500000000000002 0.0058315000000000007 20.500000000000004 74.500000000000014 18.588090500000003 0.16549300000000003 0.0033005000000000005 6.3605945000000013 1.5000000000000002 6.5000000000000009 16.500000000000004 7.5000000000000009 0.96875000000000011 0.31126700000000002 26.548184500000001 0.30094150000000003 23.399282500000002 0.11882350000000001 0.00065450000000000003 0.0021605000000000005 0.38220550000000003 1.5000000000000002 0.0072370000000000012 21.500000000000004 4.5000000000000009
decision_type=2 2 2 2 2 2 2 2 2 2 2 2 2 2 2 2 2 2 2 2 2 2 2 2 2 2 2 2 2 2 2 2 2 2 2 2 2 2 2 2 2 2 2 2 2 2 2 2 2 2 2 2 2 2 2 2 2 2 2 2 2
left_child=1 2 3 24 12 6 11 17 58 15 28 20 16 -12 29 52 23 39 22 31 57 -22 32 26 -1 47 -4 -16 45 -8 -14 -13 48 -17 35 -18 -26 56 -15 -5 -30 -10 -41 -28 -27 -2 -20 -11 -9 -36 -29 -25 55 -48 -24 -6 -23 -3 -7 -34 -33
right_child=10 5 4 7 9 8 14 18 41 25 13 19 30 38 27 33 34 -19 46 -21 21 37 54 51 36 44 43 50 40 -31 -32 60 59 -35 49 -37 -38 -39 -40 42 -42 -43 -44 -45 -46 -47 53 -49 -50 -51 -52 -53 -54 -55 -56 -57 -58 -59 -60 -61 -62
leaf_value=-0.0087581222410577329 0.027598627433958772 0.0014596349079355312 -0.0066036997458272205 -0.018899658364996817 0.0085544586623259918 -0.0093511836620305631 0.0028158488491642252 -0.022678083051529331 0.029802383465216867 0.042620039428953274 0.029146228531599889 -0.003954822241224322 -0.0067828593024229231 0.050150569718650034 0.030512435004212361 0.0058978590181437756 -0.010480604968503848 -0.023687109541267404 -0.010337864861492829 -0.0095337436751590995 -0.01784197875509437 0.0055225196060706546 0.0036000544489166782 -0.0015544390210776825 -0.016534540456934588 0.039143618271746637 -0.031425762251400743 0.0098240056142011294 0.021340352266977589 0.017545753912915341 0.010960794547135689 0.019762081006625576 -0.023207381147387882 0.029446759652706451 0.015227484361093765 0.0031833029394340365 0.014421866553772481 -0.0024571650219566135 0.040729738817409274 -0.044934244696552363 0.03562694685454447 0.046264104319418964 -0.035456875713071767 -0.015142566925979262 0.007334597813368122 0.038103600526265456 -0.0010029382163965306 0.0095567476786870866 -0.030182730083717208 -0.0069458305167301119 0.023448546037696347 -0.014424053512820102 0.0036010047422710407 0.039529422094089092 -0.014905469272498849 -0.0085593568799019002 -0.014166052885083729 0.018869295949159457 0.0085200492137091754 -0.013777136240024801 0.0072826076765683265
leaf_count=8396 3611 7831 3824 2986 1726 2562 22522 36126 1681 1339 4358 9565 6162 2121 2616 2303 66852 22916 11319 11024 32369 1306 1458 3981 1128 295 27126 3864 8105 3676 6627 2096 23584 1486 1248 6332 5937 38986 3154 54679 1111 769 32492 5480 2609 2600 1351 677 54683 3142 2034 38252 6429 237 16512 24233 17079 1924 6150 15229 31141
internal_value=0 -0.0567464 -0.116398 -0.18749 -0.0510569 0.0317981 0.0162537 -0.212158 0.183873 0.0462626 0.279225 -0.0145712 -0.0846334 0.335656 0.100891 -0.00146859 -0.0988399 -0.293944 -0.171433 0.0363453 -0.0571043 -0.0715383 -0.184513 -0.141871 0.0266173 0.21519 -0.197013 0.172337 0.224563 0.048076 0.0340595 0.0532335 -0.19958 0.141338 -0.0655695 -0.0747807 0.0908342 -0.0414483 0.374028 -0.326124 0.190764 0.307441 -0.334899 -0.229127 0.109128 0.2673 -0.0551393 0.310505 -0.22039 0.0366425 0.125307 -0.103061 -0.0359332 0.106552 -0.100072 -0.0564454 -0.0977844 0.0439471 0.0369799 -0.157643 0.0666789
internal_count=723411 698351 499156 289033 210123 199195 188033 273572 11162 41097 25060 153321 169026 9633 34712 36177 156237 113073 160499 53826 99495 89740 147592 78663 15461 4920 36430 8514 15427 26198 12789 42802 129622 3789 77574 73184 7065 57371 5275 90157 9216 2450 87171 32606 2904 6211 12907 2016 90809 4390 5898 42233 32388 1588 17970 25959 18385 9755 8712 38813 33237
shrinkage=0.122283


Tree=2
num_leaves=62
num_cat=0
split_feature=93 7 14 74 88 67 68 94 90 54 86 13 89 37 19 87 93 24 88 72 67 89 19 94 88 88 67 89 86 95 54 24 7 92 89 35 67 43 86 13 43 44 37 60 92 68 67 67 76 12 31 38 43 51 60 87 68 92 54 67 86
split_gain=172835 42691.1 16127.5 15895.4 11671 10911.8 10165.9 8244.18 8002.2 7245.61 6649.9 4220.61 3595.69 3329.26 2740.5 2618.26 2604.89 2595.38 2480.34 2407.48 2371.43 1958.83 2138.14 1958.2 1976.24 1926.14 1847.38 1621.62 1584.27 1562.08 1475.98 1464.19 1343.65 1203.3 1183.22 1106.72 1087.64 1031.51 1023.03 991.455 952.347 925.392 918.036 882.875 878.108 862.241 784.315 772.717 763.475 749.025 738.456 708.09 687.357 651.497 627.161 625.56 616.459 598.631 589.415 573.651 558.287
threshold=1.0000000180025095e-35 0.51923100000000011 30.500000000000004 -4.6945254999999984 15.500000000000002 21.818035500000004 11.632545500000001 31.500000000000004 64071.500000000007 0.0084220000000000007 28.500000000000004 4.5000000000000009 18047.500000000004 0.19937900000000003 16.500000000000004 63.500000000000007 75.500000000000014 10.500000000000002 16.500000000000004 -13.777288499999999 12.089037000000003 44276.500000000007 19.500000000000004 27.500000000000004 10.500000000000002 1.5000000000000002 14.807908000000001 29739.500000000004 27.500000000000004 13.050551948051952 0.004033000000000001 2.5000000000000004 0.48076900000000006 10.500000000000002 57358.500000000007 0.029269000000000003 15.723192500000001 0.11882350000000001 22.500000000000004 4.5000000000000009 0.14642850000000004 0.016136000000000005 0.52506300000000017 0.40982450000000009 16.500000000000004 10.705297000000002 15.888579500000002 15.413699000000001 -18.548977499999996 6.5000000000000009 1.1833335 0.16472900000000004 0.15587050000000005 0.065751500000000004 0.31126700000000002 1.5000000000000002 15.188201000000001 39.500000000000007 0.010123500000000002 11.956384500000002 31.500000000000004
decision_type=2 2 2 2 2 2 2 2 2 2 2 2 2 2 2 2 2 2 2 2 2 2 2 2 2 2 2 2 2 2 2 2 2 2 2 2 2 2 2 2 2 2 2 2 2 2 2 2 2 2 2 2 2 2 2 2 2 2 2 2 2
left_child=1 2 12 6 5 10 9 29 28 19 15 33 -1 59 27 25 48 36 40 30 31 22 -13 24 32 35 41 -12 -6 -2 -4 54 -5 -7 -14 -3 -15 -20 -18 -17 58 -16 -30 -21 46 -27 -37 -32 -9 -19 -33 -26 -45 -28 -11 -35 -36 60 -8 -10 -22
right_child=7 4 3 23 8 11 18 16 13 20 14 21 34 17 26 39 38 49 37 43 57 -23 -24 -25 51 45 53 -29 42 -31 47 50 -34 55 56 44 -38 -39 -40 -41 -42 -43 -44 52 -46 -47 -48 -49 -50 -51 -52 -53 -54 -55 -56 -57 -58 -59 -60 -61 -62
leaf_value=-0.0087329350549578619 0.018931479936279163 -0.012016924243075249 -0.041147986979594632 -0.01346293636160927 0.021859170459905472 0.032455988370743871 -0.020992106590598213 0.03553266246180143 0.0015103253759860102 -0.01489623165645485 -0.016883911712246621 -0.0047839107409304218 0.004423132274687539 -0.0067200601638009016 -0.015921744243590039 0.021528626279691557 0.045698239365621687 0.044187276631345314 0.0041440817558104203 -0.021917720244363899 0.0018328466094226122 0.017221058006653547 0.0062514963660628628 0.010796617376420046 0.0045196476657093287 0.0047796312305149347 -0.0038651680871169838 -0.0062823490635978254 -0.0030863283934330636 0.028886147515944274 -0.03164566843105792 -0.016595489203556111 -0.0018876294570893913 0.0086808104722172642 0.015399690901058912 -0.0015445226647485982 0.024735538417701666 0.03534339224856687 0.036850264302258844 0.006356718969189659 0.0051699543183562355 -0.0066717013721232614 0.012379824826426789 -0.033376395435038106 -0.007186268970245005 0.021881370715861322 0.010561755958804684 -0.008746023212012578 0.02233081543504889 0.028733304964374082 0.00966602584928925 0.030745038515346639 0.01550016795332866 0.0034221068872030028 -0.026019162652401135 0.031519021522797723 0.040413071735981965 -0.020702816020309003 -0.0083792338883396482 0.025681212618982468 -0.010597619268570304
leaf_count=16776 9272 11439 55246 22130 1800 1900 6523 1219 3566 6655 55052 18477 9078 1326 20844 4630 2544 1668 1984 38043 4210 3782 32794 2971 4404 8750 39378 17532 16204 7060 33462 32473 11992 2390 4660 12483 753 543 2691 6763 3344 24730 2529 21504 11798 2309 5343 1341 2274 1510 1092 284 204 12471 62007 535 287 4382 16088 621 13291
internal_value=0 -0.0499971 -0.12199 -0.145468 0.00400764 -0.0126748 -0.178206 0.264829 0.115516 -0.201093 -0.0414878 0.0567177 0.0239651 0.220323 -0.069705 0.0196245 0.322446 0.271885 -0.0386938 -0.256252 -0.153065 0.0369165 0.0233924 -0.0257074 -0.0454429 -0.00449925 -0.044477 -0.110881 0.0220026 0.1958 -0.294843 -0.174958 -0.0692869 0.189837 0.0817694 -0.0294996 0.102499 0.142151 0.348855 0.108724 -0.0692588 -0.0845092 -0.00141933 -0.207235 -0.00748983 0.0758715 0.0234257 -0.245066 0.235121 0.323927 -0.126876 0.0662663 -0.263495 -0.016268 -0.201945 0.113028 0.145674 -0.0789793 -0.0915025 0.0526037 -0.0591052
internal_count=723411 698351 374974 344173 323377 293400 302392 25060 29977 273910 233522 59878 30801 9444 170007 63515 8728 5257 28482 149800 124110 55053 51271 41781 38810 52122 97423 72584 20533 16332 90049 102227 34122 4825 14025 41063 2079 2527 5235 11393 25955 45574 18733 59751 29624 11059 17826 34803 3493 3178 33565 4688 21708 51849 68662 2925 4947 21883 22611 4187 17501
shrinkage=0.122283


Tree=3
num_leaves=62
num_cat=0
split_feature=93 7 14 7 88 67 74 90 94 86 13 72 83 37 67 89 54 43 88 19 87 93 94 6 86 24 89 88 39 24 38 95 24 89 49 89 88 35 60 87 94 89 94 2 67 67 68 64 92 68 75 12 38 13 19 77 68 54 60 88 91
split_gain=100255 30617.1 9917.68 9771.98 7794.33 6546.63 6431.1 5207.19 5064.17 4071.09 3960.98 3856.94 3410.35 3032.96 2953.49 2881.76 2248.99 2217.9 2185.53 2009.82 1886.83 1680.77 1616.57 1496.83 1445.66 1428.35 1249.05 1213.22 1173.74 1166.76 1047.18 1044.05 1037.62 1034.12 1021.44 858.468 851.727 824.444 806.124 778.873 809.177 724.282 706.898 692.222 689.464 626.474 608.786 599.958 586.911 576.131 564.857 555.17 549.382 525.636 523.625 523.151 515.882 509.555 518.191 485.448 484.424
threshold=1.0000000180025095e-35 0.69047650000000005 30.500000000000004 0.35416650000000005 12.500000000000002 18.302420000000005 -15.155897999999999 65532.500000000007 30.500000000000004 28.500000000000004 4.5000000000000009 -7.002207499999999 -2.1847974999999997 0.19937900000000003 14.881849000000001 18047.500000000004 0.0059815000000000016 0.11437900000000002 2.5000000000000004 16.500000000000004 147.50000000000003 55.500000000000007 31.500000000000004 0.46428550000000007 28.500000000000004 10.500000000000002 21512.500000000004 1.5000000000000002 0.042298000000000009 3.5000000000000004 0.16472900000000004 11.200502411383601 5.5000000000000009 60974.500000000007 0.010609000000000002 51779.500000000007 16.500000000000004 0.029269000000000003 0.13250400000000004 1.5000000000000002 26.500000000000004 42410.000000000007 255.50000000000003 3.5000000000000004 22.824468000000007 15.723192500000001 15.446808500000001 0.68728600000000017 16.500000000000004 16.177059500000002 -7.3525384999999988 6.5000000000000009 0.15587050000000005 4.5000000000000009 23.500000000000004 -33.81916549999999 17.428788500000003 0.0087215000000000018 0.33469350000000003 8.5000000000000018 12.500000000000002
decision_type=2 2 2 2 2 2 2 2 2 2 2 2 2 2 2 2 2 2 2 2 2 2 2 2 2 2 2 2 2 2 2 2 2 2 2 2 2 2 2 2 2 2 2 2 2 2 2 2 2 2 2 2 2 2 2 2 2 2 2 2 2
left_child=1 2 15 6 5 9 16 24 31 20 39 14 23 -9 17 -1 -4 32 56 26 27 -10 -13 34 -6 45 -12 37 -11 35 -20 -2 57 60 38 -16 -19 -3 -8 40 -7 44 -23 -26 -21 -15 -35 -18 -39 -29 -24 -27 -36 -22 -30 -49 -14 -5 -59 -34 -17
right_child=8 4 3 11 7 10 12 13 21 28 19 22 18 25 29 33 47 36 30 41 53 42 50 -25 43 51 -28 49 54 -31 -32 -33 59 46 52 -37 -38 48 -40 -41 -42 -43 -44 -45 -46 -47 -48 55 -50 -51 -52 -53 -54 -55 -56 -57 -58 58 -60 -61 -62
leaf_value=-0.0088387970347673962 0.016610027138724219 -0.01364925544693929 -0.036844895421149493 -0.027726615550572192 0.020400272631225975 0.012477408807622164 -0.020524743045279542 0.0051918183245018784 0.025817039943328179 -0.014093997907567546 -0.0098319174403283405 -0.0011329591436008907 -0.015589935058843847 -0.013441525165020512 -0.010294322671698917 -0.013321012526029484 -0.029581709657940779 -0.00069025153815947923 -0.00071020555220845051 0.00032823832229640773 0.020829316400561411 0.034383252232232743 0.045187194406284506 0.00023605040110630151 -0.00024458002114514899 0.041697373215926654 0.0064375484756451166 0.0062123140934875832 -0.0095860514030645019 0.0039351738652714727 0.021894417690152695 0.026329319989575366 -0.012619460403538604 0.01596249814639078 -0.019106402945431412 0.0060635239439784452 0.039623665352759171 0.0025009583974294359 -0.03284671639253469 0.031769569402628137 0.034871119001959036 0.015193939299025639 0.04291847024923378 0.020733111906725117 0.0073677125606691606 0.022439241815083753 0.041911858666857107 -0.011195932186908867 -0.0085828151855374384 0.032802681594038853 0.014737675938511817 0.027255459235558315 -0.0068322453047946572 0.0066940121304893954 -0.0029249751093530763 -0.023533474107445052 0.0057726284585318663 -0.0025353220212469604 -0.019274592499850886 0.0038576334679006662 0.0069633570809070943
leaf_count=17040 8851 9947 67049 15237 2672 6613 22176 4582 3240 46251 21581 19557 18913 819 28042 1422 18468 1507 7207 22204 3154 2782 141 5075 20292 1769 5621 7741 31297 9173 1589 7393 9595 3541 43264 2553 206 14038 25651 1700 716 4508 2794 968 25889 539 197 8466 8652 422 1161 1612 5849 4200 27543 20215 1219 2310 54219 3016 8963
internal_value=0 -0.0419592 -0.10233 -0.120464 0.0185806 -0.000716252 -0.169974 0.115149 0.243266 -0.0401817 0.0468674 -0.0668632 -0.124884 0.214897 -0.092593 0.0280652 -0.244489 -0.133717 -0.0470647 0.0253739 0.0185341 0.298108 0.0179154 -0.161632 0.040209 0.273755 -0.041118 -0.00819708 -0.0765663 -0.0396466 0.03998 0.179351 -0.145245 0.0841448 -0.17293 -0.0670384 0.118265 -0.0349962 -0.21607 0.163469 0.130587 0.0480235 0.322966 0.0115062 0.0384778 0.0755804 0.157919 -0.189623 -0.00979448 0.0710376 0.162381 0.306111 -0.141672 0.115348 -0.0507806 -0.158351 -0.112699 -0.162817 -0.149518 -0.0643542 0.0414721
internal_count=723411 698351 423021 391858 275330 242077 245141 33253 25060 153245 88832 146717 130943 9321 125858 31163 114198 86090 28928 79803 48154 8816 20859 102015 23932 4739 27202 40800 105091 39768 8796 16244 84377 14123 96940 30595 1713 32637 47827 9029 7329 52601 5576 21260 48093 1358 3738 47149 22690 8163 1302 3381 49113 7354 58840 28681 20132 71766 56529 12611 10385
shrinkage=0.122283


Tree=4
num_leaves=62
num_cat=0
split_feature=93 7 14 7 88 67 74 94 90 86 13 83 38 37 67 89 84 54 93 87 60 86 72 88 39 24 24 86 89 89 88 88 94 66 68 92 35 89 88 24 43 2 19 91 82 38 64 88 87 73 60 88 67 67 67 76 34 82 39 12 13
split_gain=67917.1 22410 6999.37 6673.76 5096.3 5097.67 4734.94 3878.82 3619.57 3137.18 2915.93 2713.49 2406.34 2201.79 2182.26 1993.53 1846.19 1667.98 1572.66 1398.81 1388.48 1074.16 1048.32 998.667 929.652 916.727 881.224 865.593 799.828 781.427 780.243 768.893 752.049 704.124 702.846 683.699 669.203 657.667 646.414 616.615 536.961 518.155 507.91 499.382 483.59 471.771 462.399 458.548 455.217 450.3 448.063 444.868 444.813 444.534 438.579 433.678 431.226 420.097 413.133 405.331 387.69
threshold=1.0000000180025095e-35 0.69047650000000005 30.500000000000004 0.35416650000000005 12.500000000000002 18.302420000000005 -15.155897999999999 10.500000000000002 65532.500000000007 28.500000000000004 4.5000000000000009 -9.631359999999999 0.15587050000000005 0.19937900000000003 14.807908000000001 18047.500000000004 -3.7908634999999995 0.0059815000000000016 8.5000000000000018 291.50000000000006 0.99999950000000004 25.500000000000004 -8.1574694999999995 1.5000000000000002 0.042298000000000009 10.500000000000002 5.5000000000000009 22.500000000000004 31453.500000000004 24911.500000000004 16.500000000000004 3.5000000000000004 33.500000000000007 3.0721245000000006 9.5730165000000014 15.500000000000002 0.027686000000000006 43623.000000000007 2.5000000000000004 3.5000000000000004 0.11882350000000001 3.5000000000000004 19.500000000000004 16.500000000000004 -3.2146309999999994 0.24025950000000004 0.68094600000000016 9.5000000000000018 1.5000000000000002 -14.313550999999999 0.38220550000000003 1.5000000000000002 32.732698500000005 15.723192500000001 25.411010000000001 -17.933804499999997 13.358974000000002 -4.1023404999999995 0.041519500000000008 6.5000000000000009 4.5000000000000009
decision_type=2 2 2 2 2 2 2 2 2 2 2 2 2 2 2 2 2 2 2 2 2 2 2 2 2 2 2 2 2 2 2 2 2 2 2 2 2 2 2 2 2 2 2 2 2 2 2 2 2 2 2 2 2 2 2 2 2 2 2 2 2
left_child=1 2 15 6 5 9 17 -2 21 19 35 14 16 -10 22 -1 33 -4 55 23 37 -6 26 36 -11 53 -5 -20 -22 39 32 -14 -13 51 43 54 -3 42 -18 50 -32 -23 -12 -17 -33 -25 -19 -28 -37 -45 -16 -8 -44 -15 -7 -9 -26 -31 -48 -27 -21
right_child=7 4 3 11 8 10 12 18 13 24 20 30 31 25 29 34 38 46 27 60 28 41 -24 45 56 59 47 -29 -30 57 40 44 -34 -35 -36 48 -38 -39 -40 -41 -42 -43 52 49 -46 -47 58 -49 -50 -51 -52 -53 -54 -55 -56 -57 -58 -59 -60 -61 -62
leaf_value=-0.0083024636963171354 0.017717111275691713 -0.014057217378478254 -0.03477649353003149 -0.019613915998461729 0.021936059515329381 0.019573034912792373 -0.024068607973343033 0.026261638154100587 0.0047402230437422694 -0.013883247346242572 -0.0020346904834472471 -0.0031598829987994773 -0.0059971064538453071 -0.013732158726957601 0.0049159436248931258 -0.0097451003646882098 -0.013158121821375341 -0.028198473935910781 0.038969153999830017 0.02080565359710327 -0.0099152381648148994 1.8447523347302657e-05 0.0034033395538508489 0.0052840015192210221 -0.0093419350542946686 0.038556860073395746 -0.012173012710394298 0.029894084977970532 0.0068789930707610593 0.0017015796795273894 0.0082634817824475612 0.0011127650671797944 0.014577879252885019 -0.0057181255921344805 0.020136650854085742 0.004692912827658882 -0.0011343015169296932 0.015168186716952472 0.00027841625716277949 0.00032251379672984233 0.038008729047121284 0.01803692884276193 0.004610612525590323 0.016784199185398023 0.025134486309034743 0.025076042870713498 -0.024021893741215133 0.00624226080231754 0.024950920979131694 0.0037483627797474934 -0.012554774152857226 -0.016926351372624781 0.014514834834714887 0.020895840201977985 0.03482436560725688 0.01059201124374691 -0.0025713648326226093 0.034104523611566032 -0.0126932526606892 0.025010493851746071 0.0066819630139132074
leaf_count=17040 12999 9489 67049 68787 1742 3775 59796 1123 4582 46251 13614 20815 10435 819 1305 2047 12519 18015 3797 2693 18672 21201 2498 7525 31749 1769 9011 5484 3535 8242 1680 2343 1099 5820 3473 3571 23905 4479 5775 6874 228 989 35880 2429 964 987 15496 2519 783 6174 23503 33291 3623 539 900 1657 27091 156 13638 1612 3555
internal_value=0 -0.0376135 -0.0949826 -0.111937 0.0195625 0.00222295 -0.157803 0.226679 0.105457 -0.037386 0.0474274 -0.0632943 -0.11474 0.197144 -0.088879 0.0260761 -0.135946 -0.229224 0.268514 0.0192743 0.02686 0.0367669 -0.130215 -0.00475205 -0.0738735 0.253622 -0.141576 0.287131 -0.0447407 -0.0397768 0.00976101 0.00340102 -0.00778004 -0.164483 0.0767128 0.154057 -0.0326347 0.0442575 -0.0564941 -0.0636814 0.127885 0.013845 0.0350646 0.0473589 0.103691 0.0702809 -0.177 -0.0555953 0.0834517 0.0666112 -0.0893993 -0.174467 0.047281 0.0743023 0.199108 0.15585 -0.048477 0.0267382 -0.147983 0.281803 0.117218
internal_count=723411 698351 423021 391858 275330 242077 245141 25060 33253 153245 88832 146717 130943 9321 122895 31163 117201 114198 12061 48154 79803 23932 82815 41906 105091 4739 80317 9281 22207 40080 23822 13742 21914 98907 14123 9029 33394 57596 18294 31682 1908 22190 53117 10650 3307 8512 47149 11530 4354 8603 24808 93087 39503 1358 4675 2780 58840 8398 29134 3381 6248
shrinkage=0.122283


Tree=5
num_leaves=62
num_cat=0
split_feature=93 7 14 7 88 67 74 94 38 13 86 72 73 92 89 54 68 93 67 88 60 87 31 94 24 88 39 13 94 53 67 90 13 88 87 38 68 89 94 67 87 69 86 44 68 13 54 35 5 34 68 76 92 19 77 24 67 24 88 13 92
split_gain=48938.1 16772.6 5210.03 4855.4 3678.53 3684.88 3623.99 2989.61 2783.78 2196.31 2153.37 1965.26 1763.38 1705.61 1423.24 1366.44 1318.49 1222.97 1159.39 1122.61 1038.15 898.863 878.831 792.5 747.138 720.753 626.864 607.735 586.623 575.006 570.858 814.857 654.706 570.332 548.949 545.052 528.923 515.452 492.98 467.074 485.217 414.754 410.286 407.95 398.381 395.252 394.356 389.074 373.132 364.305 347.126 344.303 337.564 333.338 330.345 320.268 304.626 304.376 299.118 285.164 284.308
threshold=1.0000000180025095e-35 0.69047650000000005 30.500000000000004 0.35416650000000005 8.5000000000000018 18.213637500000001 -14.893983499999997 10.500000000000002 0.16472900000000004 4.5000000000000009 28.500000000000004 -7.7646544999999989 -3.1498824999999995 1.5000000000000002 18047.500000000004 0.0052345000000000004 15.056200000000002 81.500000000000014 16.370925500000002 2.5000000000000004 0.99999950000000004 144.50000000000003 0.46428550000000007 20.500000000000004 5.5000000000000009 15.500000000000002 0.033393000000000006 4.5000000000000009 255.50000000000003 0.022100000000000005 11.4930225 63735.500000000007 4.5000000000000009 1.0000000180025095e-35 1.0000000180025095e-35 0.16472900000000004 9.945173500000001 25424.500000000004 26.500000000000004 32.732698500000005 330.50000000000006 26.103401000000005 31.500000000000004 0.0054960000000000009 12.305169000000001 4.5000000000000009 0.0047805000000000009 0.029269000000000003 0.96875000000000011 17.535714500000001 17.799030500000004 -7.5084204999999988 12.500000000000002 30.500000000000004 -16.845136499999995 1.5000000000000002 23.189929000000003 4.5000000000000009 8.5000000000000018 4.5000000000000009 12.500000000000002
decision_type=2 2 2 2 2 2 2 2 2 2 2 2 2 2 2 2 2 2 2 2 2 2 2 2 2 2 2 2 2 2 2 2 2 2 2 2 2 2 2 2 2 2 2 2 2 2 2 2 2 2 2 2 2 2 2 2 2 2 2 2 2
left_child=1 2 14 6 5 10 15 56 30 34 21 16 22 49 -1 -4 18 41 24 50 39 33 29 46 48 -18 -12 -15 -19 -8 -6 32 -32 47 38 -21 42 -22 -7 40 -11 -9 54 -17 -35 -20 -13 -3 -5 -10 -14 -25 -27 -28 -16 -50 -2 -51 -26 -23 -40
right_child=7 4 3 11 8 9 12 17 13 20 26 23 19 27 36 43 25 28 45 35 37 59 -24 51 58 52 53 -29 -30 -31 31 -33 -34 44 -36 -37 -38 -39 60 -41 -42 -43 -44 -45 -46 -47 -48 -49 55 57 -52 -53 -54 -55 -56 -57 -58 -59 -60 -61 -62
leaf_value=-0.0074271616312289587 0.014161987920756522 -0.014040840346521194 -0.033323128534406644 -0.012204761383829081 -0.002912157794043736 0.010005695862427531 -0.020866766982379728 0.018823123586567521 0.017779693949616367 0.002484043052247279 -0.014745738492024384 -0.020227014721542147 -0.014121445462752763 0.038709356222431761 0.019966142949554185 -0.022015638884990092 -0.0033468207220263713 0.029442207707001296 0.0076837126268638504 -0.00089636860448561654 -0.010090238576852914 0.017105541452613584 -0.00028398739354729634 0.03226531097725039 -0.010281615839343313 0.024385511079860124 -0.0090022287950314531 0.010383771301879915 0.03877218604747551 -0.011262827714268019 0.02748008685703553 0.022014964911253158 0.0018024832316949958 0.001801554338545248 0.028250900907513438 0.017918706539679873 0.018811768710367268 0.0047315110402704752 0.039267193554643802 0.013487086395044362 0.013406767383923282 0.030082189388821873 -0.0029290744058472775 -0.0066199409693648648 0.018341646404482728 -0.0069149777611837576 -0.00059995288234315639 -0.0021669971347983456 -0.024533554634291865 -0.025800911751900933 0.0078912248467665463 0.0090599214776908507 -0.018923834460200871 -0.0024126064921216371 0.0053992966669255561 -0.016421403431501249 0.022913011807680104 0.037134909858926063 0.0039532341003867578 0.0045192550314162661 0.0086538529541816712
leaf_count=17040 10187 8275 63255 23050 12679 6516 74757 3891 921 44817 32184 2403 18391 360 1535 49027 11209 3824 2322 6770 17393 3035 5734 299 10024 1056 44199 10668 2668 20254 684 2292 17947 10197 1779 1589 3297 4004 326 4465 4804 1678 4518 4330 1753 20742 17634 19447 23907 109 1034 1363 354 20410 4773 29304 2812 1815 3050 3884 367
internal_value=0 -0.0343168 -0.0881662 -0.103961 0.0194838 0.000449104 -0.146651 0.212008 0.0862149 0.0430151 -0.0379696 -0.059205 -0.104938 0.164082 0.0258405 -0.213452 -0.0831688 0.252656 -0.0987577 -0.0389287 0.0223696 0.0134079 -0.138302 0.0068964 -0.124234 0.00971808 -0.0733583 0.101909 0.284158 -0.150453 0.030592 0.0585761 0.0314767 -0.00983996 0.142536 0.0288325 0.0725301 -0.0476011 0.108743 0.0391283 0.0299387 0.189746 0.0440863 -0.167156 0.0416415 -0.0403889 -0.014289 -0.0394335 -0.142021 0.266533 -0.100551 0.120212 0.158214 -0.0544299 0.0796674 -0.162057 0.133514 0.296303 -0.0468391 0.0934478 0.246578
internal_count=723411 698351 423021 391858 275330 227855 245141 25060 47475 84471 143384 146717 128529 13873 31163 116612 125018 12061 112399 27784 75483 46591 100745 21699 89335 12619 96793 11028 6492 95011 33602 20923 18631 39672 8988 8359 14123 21397 7209 54086 49621 5569 10826 53357 11950 23064 20037 27722 76261 2845 19425 1662 1410 64609 6308 53211 12999 1924 13074 6919 693
shrinkage=0.122283


Tree=6
num_leaves=62
num_cat=0
split_feature=93 7 53 60 54 88 67 94 38 13 84 86 67 92 89 19 93 86 14 87 54 91 95 88 24 74 89 86 67 39 92 54 88 13 68 87 24 13 19 89 92 92 67 87 61 94 10 38 93 50 87 14 92 78 12 89 79 74 68 7 13
split_gain=36812 12999.7 4207.95 3419.25 3857.61 2968.18 2792 2412.76 2303.8 1724.93 1655.38 1602.41 1578.27 1474.09 990.792 810.353 767.461 754.793 656.423 654.572 637.478 843.304 600.263 573.661 565.749 541.868 518.845 508.463 504.304 474.197 457.16 454.833 446.82 437.563 431.764 422.015 421.677 420.325 440.415 420.013 408.545 388.132 385.719 384.367 382.246 377.76 363.959 348.743 342.401 335.756 329.565 327.678 317.405 301.201 323.982 278.582 274.182 272.652 320.601 269.16 268.269
threshold=1.0000000180025095e-35 0.69047650000000005 0.077350500000000016 0.2995520000000001 0.0067365000000000003 8.5000000000000018 18.213637500000001 43.500000000000007 0.16472900000000004 4.5000000000000009 -33.631492499999993 28.500000000000004 12.089037000000003 1.5000000000000002 25950.500000000004 16.500000000000004 75.500000000000014 26.500000000000004 2690.5000000000005 522.50000000000011 0.011712500000000002 23.500000000000004 7.2044191919191958 16.500000000000004 2.5000000000000004 -4.6945254999999984 21512.500000000004 18.500000000000004 10.009032000000001 0.033393000000000006 1.5000000000000002 0.0031535000000000005 1.0000000180025095e-35 4.5000000000000009 17.311439500000002 1.5000000000000002 4.5000000000000009 4.5000000000000009 39.500000000000007 27515.500000000004 15.500000000000002 2.5000000000000004 32.732698500000005 330.50000000000006 0.79708800000000013 26.500000000000004 10.500000000000002 0.24025950000000004 6.5000000000000009 0.015152500000000001 1.0000000180025095e-35 36.500000000000007 11.500000000000002 -16.933166499999995 3.5000000000000004 65222.500000000007 -6.0959714999999983 -3.1633749999999998 15.188201000000001 0.64583350000000006 7.5000000000000009
decision_type=2 2 2 2 2 2 2 2 2 2 2 2 2 2 2 2 2 2 2 2 2 2 2 2 2 2 2 2 2 2 2 2 2 2 2 2 2 2 2 2 2 2 2 2 2 2 2 2 2 2 2 2 2 2 2 2 2 2 2 2 2
left_child=1 2 3 10 31 6 11 22 37 35 46 19 24 60 18 26 -9 34 25 32 21 56 -2 57 -6 28 -11 -15 51 -13 -25 -5 49 50 55 40 -35 -7 -39 -36 45 -40 43 -17 -26 -8 -1 -34 -24 -3 -14 -12 -18 54 -23 -4 -16 58 -19 -22 -10
right_child=7 5 17 4 12 8 9 16 13 15 14 29 33 27 20 42 52 23 -20 -21 59 53 48 30 44 -27 -28 -29 -30 -31 -32 -33 47 36 39 -37 -38 38 41 -41 -42 -43 -44 -45 -46 -47 -48 -49 -50 -51 -52 -53 -54 -55 -56 -57 -58 -59 -60 -61 -62
leaf_value=-0.0081127930830110009 0.011749161326184445 -0.016293413717148254 0.0025360407240917885 -0.034483716816258607 -0.019629138758734978 0.019106882530062708 0.013736634961130229 0.02169290039990671 0.036245686011600602 -0.0084341896278230521 -0.006836955030200864 -0.013834424948194451 -0.0017342737312030271 0.037654688446648189 -0.013580149534679516 0.0023618768952066767 0.036725435862826436 -0.010337946176137468 -0.030388338572482267 0.012204995804756974 0.0072714280019732314 0.018670894156584107 0.014330473777453183 0.024655743998495367 -0.01342182147407288 -0.0033320602464538573 0.00557026044290794 0.0097168049185408639 0.0018039793692798092 -0.0062147961774405153 -0.0039954803850880275 -0.024502908995336373 0.0021450445973706322 -0.010417878426509182 0.0058345891517655396 0.026554628487211775 1.2317871568116968e-05 -0.0009764970634656365 0.019029550565006617 0.035120824547121392 0.0033204128250579152 0.0028942610493075003 0.013229550144635919 0.012588766868259053 0.0044566108097045948 0.035530034741189223 -0.041766013798261142 0.019143365341070598 0.024124844963080441 -0.0022089016536537341 0.021323508583977361 -0.017021922318245983 0.027300838397294296 0.0010339887350240095 -0.036549390842212919 0.02068023045499888 -0.0024280118395458841 0.0061554390851173276 -0.00061152728136136569 0.030211257311965386 0.02263709872685752
leaf_count=587 7753 5315 9712 39778 79612 1285 3401 3016 1312 20998 10775 32184 4843 300 16464 40335 3276 17870 3883 4889 5306 1843 3038 1232 41477 20164 5352 10728 2947 64609 1637 41122 11346 42890 1337 1678 8077 24129 2453 693 3550 5735 4190 4608 2766 359 7464 1471 6482 23570 967 32176 1495 5295 440 1328 4761 3273 11994 308 1533
internal_value=0 -0.0314399 -0.0820017 -0.0994884 -0.131735 0.0191928 0.000757667 0.199144 0.0826527 0.0401284 -0.0500485 -0.0353127 -0.103313 0.156 -0.0416982 0.0205186 0.256286 0.0127111 -0.0688448 0.0118999 0.00294558 -0.0240332 0.146465 -0.0169391 -0.136269 -0.0616565 -0.0358036 0.0952239 -0.0938732 -0.0683921 0.104011 -0.236303 -0.00571458 -0.0563895 0.0769966 0.133706 -0.068534 0.0276564 0.0176419 0.182163 0.102637 0.0743891 0.0390314 0.029495 -0.0973513 0.148242 -0.284209 0.0401804 0.175034 -0.033359 0.0291665 -0.112262 0.281602 0.0499892 0.128846 0.0441441 -0.0738888 -0.0344395 -0.0480223 0.0793754 0.255123
internal_count=723411 698351 423021 373945 261532 275330 227855 25060 47475 84471 112413 143384 180632 13873 104362 75483 7787 49076 69945 46591 34417 28803 17273 36006 123855 66062 26350 11028 45898 96793 2869 80900 41702 56777 13070 8988 50967 33602 32317 2030 7310 8188 49133 44943 44243 3760 8051 12817 9520 28885 5810 42951 4771 7578 2283 11040 21225 33137 29864 5614 2845
shrinkage=0.122283


Tree=7
num_leaves=62
num_cat=0
split_feature=93 7 53 60 54 66 86 94 19 92 88 84 67 89 67 93 67 38 67 89 68 54 14 88 14 61 85 92 92 79 67 90 13 88 24 90 54 13 87 69 24 14 94 87 79 13 10 67 54 76 14 92 15 12 87 86 86 13 88 42 94
split_gain=28589.6 10484.7 3452.56 2795.18 3190.43 2356.85 2433.37 1981.23 1566.51 1465.63 1287.71 1260.17 1246.4 946.186 940.078 881.69 779.371 624.527 651.155 622.082 631.76 598.855 708.476 525.6 520.025 515.337 507.924 409.133 397.502 396.619 382.26 376.467 376.319 374.923 373.005 361.335 358.635 353.095 414.65 351.392 323.136 321.361 319.82 314.795 311.385 291.475 289.214 287.875 286.249 286.096 285.784 278.018 273.729 271.736 269.59 252.322 252.289 249.382 246.385 245.249 242.692
threshold=1.0000000180025095e-35 0.69047650000000005 0.077350500000000016 0.2995520000000001 0.0067365000000000003 13.506487500000002 31.500000000000004 7.5000000000000009 16.500000000000004 2.5000000000000004 1.0000000180025095e-35 -33.631492499999993 12.089037000000003 25950.500000000004 15.807130000000003 16.500000000000004 15.888579500000002 0.24025950000000004 18.921491500000005 32044.000000000004 15.446808500000001 0.011712500000000002 36.500000000000007 9.5000000000000018 2690.5000000000005 0.78225600000000017 1.5000000000000002 10.500000000000002 2.5000000000000004 -6.2947244999999992 11.039288500000001 61696.500000000007 4.5000000000000009 31.500000000000004 4.5000000000000009 61917.000000000007 0.0031535000000000005 4.5000000000000009 1.0000000180025095e-35 20.669229000000005 2.5000000000000004 49.500000000000007 275.50000000000006 394.50000000000006 -6.2947244999999992 4.5000000000000009 10.500000000000002 24.424216500000004 0.023872500000000001 -17.933804499999997 30.500000000000004 15.500000000000002 29.500000000000004 3.5000000000000004 1.0000000180025095e-35 20.500000000000004 23.500000000000004 4.5000000000000009 11.500000000000002 0.16549300000000003 34.500000000000007
decision_type=2 2 2 2 2 2 2 2 2 2 2 2 2 2 2 2 2 2 2 2 2 2 2 2 2 2 2 2 2 2 2 2 2 2 2 2 2 2 2 2 2 2 2 2 2 2 2 2 2 2 2 2 2 2 2 2 2 2 2 2 2
left_child=1 2 3 11 36 6 10 -2 -8 52 16 46 25 24 31 49 43 18 27 23 41 22 53 -4 29 40 39 33 -25 30 50 -10 54 48 -34 47 -5 38 51 42 57 -21 -17 -3 -24 -20 -1 -16 -12 -9 -13 -18 -7 -15 -14 -19 -22 -6 -37 -33 -31
right_child=7 5 19 4 12 9 8 15 14 -11 17 13 32 21 35 26 37 55 45 20 56 -23 44 28 -26 -27 -28 -29 -30 60 -32 59 34 -35 -36 58 -38 -39 -40 -41 -42 -43 -44 -45 -46 -47 -48 -49 -50 -51 -52 -53 -54 -55 -56 -57 -58 -59 -60 -61 -62
leaf_value=-0.00794140542311309 0.013256228195848874 -0.0058654198842697331 -0.0051207406289835071 -0.033259904251236129 -0.01149212646255328 0.016446947270885432 -0.0086916203684084033 0.023278662799979911 -0.0079196713590160631 0.0071874309917615226 5.8569520787801807e-05 -0.0062562635647234483 -0.001878653533351374 0.0075329367424591433 5.7266634515373088e-05 0.020805907380083866 0.011749848563754335 0.029947852072344839 0.025511480967533647 0.01193051261369636 0.031230650526231633 0.0094078713965418202 -0.014604656921641115 0.02235479413678117 -0.030870940238962072 0.00044147635968632651 0.024096937331674635 -0.0011725231892698309 -0.0029960894048088353 -0.0047832680935847166 0.0020512529472066152 -0.0041100569494692835 -0.010182469106508621 0.02882538704365132 6.5234375871474644e-05 0.0047078357567122585 -0.023701686507017636 -0.00015245937772379855 0.022710914587582391 0.038128090456325023 -0.012660462747751469 -0.0026273315619374806 0.033503678384852235 0.0073433909225199502 -0.0024441985307171398 0.011619670584390205 -0.040101953267510593 0.0060640680042813432 0.011835652578915558 0.010033117706088611 -0.016289818163565308 -0.0020117580717896604 0.0319822486472187 -0.021762778788125371 0.019061855443123291 0.01374037966521274 0.011931466010075237 -0.020637410947475329 0.020187162218117546 0.010670788569982463 0.013612174444585699
leaf_count=587 11858 27253 29152 39778 13282 2054 72780 1603 33369 18812 5826 10407 4843 5916 35880 1491 4464 1553 1967 3166 868 5614 16534 1469 3883 4805 4697 9256 2269 20112 2493 4585 42890 652 8077 3224 41122 8447 1645 1715 41234 9955 1308 2720 5631 4795 7464 15604 8080 2388 32548 3737 2011 722 967 2044 2197 64534 1549 3023 502
internal_value=0 -0.0288984 -0.0769441 -0.0938785 -0.125097 0.0189434 0.00747601 0.187992 -0.0199151 0.108869 0.051302 -0.0470983 -0.0980557 -0.0397302 0.00462996 0.223499 0.0117215 0.0930318 0.0756827 0.0126392 0.0651373 0.00454224 -0.0237467 -0.0201095 -0.0685478 -0.129356 0.244934 0.0473396 0.0882469 -0.0622513 -0.0914624 -0.043513 -0.0542393 0.0786013 -0.0663684 0.0277928 -0.227883 0.0571076 0.088222 0.272371 -0.136667 0.0216321 0.236074 -0.0311932 -0.071184 0.147292 -0.270371 0.0190179 0.0625157 0.138629 -0.10719 0.0546854 0.22207 0.0472808 0.0276785 0.187906 0.169612 -0.156084 0.100144 0.0211726 -0.0309902
internal_count=723411 698351 423021 373945 261532 275330 252453 25060 170014 22877 82439 112413 180632 104362 97234 13202 48266 34173 30576 49076 16186 34417 28803 32890 69945 123855 9211 23814 3738 66062 45448 40977 56777 14558 50967 56257 80900 18293 9846 4514 119050 13121 2799 29973 22165 6762 8051 51484 13906 3991 42955 8201 4065 6638 5810 3597 3065 77816 4773 7608 20614
shrinkage=0.122283


Tree=8
num_leaves=62
num_cat=0
split_feature=93 7 54 60 66 86 60 19 54 94 88 68 92 67 89 67 14 72 67 6 72 38 90 86 67 93 92 53 88 91 13 85 89 94 89 92 24 88 90 88 69 64 67 63 30 67 63 30 14 39 92 85 67 94 77 86 89 88 82 68 89
split_gain=22841.3 8843.65 2734.02 2318.45 2030.57 2111.11 1687.6 1380.81 1331.44 1241.81 1100.79 1098.1 1092.46 810.919 724.344 679.679 679.375 992.345 616.308 589.363 430.089 410.093 404.094 401.537 398.225 392.887 387.739 381.047 380.918 359.407 346.936 520.301 345.976 344.377 340.66 334.154 334.103 333.293 332.96 388.477 327.545 322.901 321.981 291.973 286.386 251.224 248.021 230.804 227.206 226.732 224.895 304.469 217.134 214.904 214.076 204.771 197.649 196.622 266.202 188.477 185.807
threshold=2.5000000000000004 0.69047650000000005 0.0115475 0.19783650000000003 15.726611500000002 31.500000000000004 0.35009300000000004 16.500000000000004 0.0047805000000000009 43.500000000000007 1.5000000000000002 16.765342000000004 2.5000000000000004 18.302420000000005 25950.500000000004 15.807130000000003 30.500000000000004 -3.5907099999999996 16.370925500000002 0.7321430000000001 -22.713338499999995 0.24025950000000004 64682.500000000007 27.500000000000004 26.269375000000004 237.50000000000003 4.5000000000000009 0.084523500000000015 2.5000000000000004 12.500000000000002 4.5000000000000009 1.5000000000000002 49308.000000000007 2.5000000000000004 56284.500000000007 11.500000000000002 4.5000000000000009 31.500000000000004 64071.500000000007 12.500000000000002 9.0461280000000013 0.38920450000000001 9.9416640000000012 0.89083350000000017 1.7750000000000001 15.480683000000001 0.75777550000000005 6.9687500000000009 2690.5000000000005 0.014838000000000002 10.500000000000002 2.5000000000000004 23.939682000000005 201.50000000000003 -14.537630999999998 33.500000000000007 46755.500000000007 12.500000000000002 -1.7288749999999997 15.446808500000001 25950.500000000004
decision_type=2 2 2 2 2 2 2 2 2 2 2 2 2 2 2 2 2 2 2 2 2 2 2 2 2 2 2 2 2 2 2 2 2 2 2 2 2 2 2 2 2 2 2 2 2 2 2 2 2 2 2 2 2 2 2 2 2 2 2 2 2
left_child=1 2 3 16 5 10 14 50 43 33 13 18 -6 30 -4 22 29 20 19 23 -18 24 -9 46 37 45 55 41 48 -1 31 -3 -20 -2 -31 -15 -25 49 52 -40 -16 -10 -43 -5 -22 59 -8 -42 -19 -12 51 -7 -17 -27 -36 -13 -28 -24 -59 -11 -53
right_child=9 4 6 8 12 7 11 15 27 25 21 26 -14 35 40 38 17 28 32 -21 44 -23 57 36 -26 53 56 -29 -30 34 -32 -33 -34 -35 54 -37 -38 -39 39 -41 47 42 -44 -45 -46 -47 -48 -49 -50 -51 -52 60 -54 -55 -56 -57 -58 58 -60 -61 -62
leaf_value=-0.018450822953664302 0.011588321999771462 -0.0018272370229183224 -0.0019375971138597054 -0.029058773326272474 0.028457379475815291 -0.0001699906620927059 -0.0082372436671520697 -0.0065624079842473461 -0.0059868798505141639 0.013642403139440436 -0.0065245063848731258 0.030857620021918837 0.0085098976616088135 0.014457762913749096 0.0021028852955297223 0.0004745757128748023 -0.03576056223700997 -0.0078912444157427201 -0.0045507655241669148 0.0087229995923066642 -0.017808572831815001 0.023104610099569833 -0.0090003683605361772 -0.01575961528039176 0.025839810986972935 0.025053923246118499 -0.0028805022124053408 0.00019331854548429941 0.0017057204500292931 -0.0021618843514436396 -0.0066030255617983043 0.012922170686798856 0.011834792925998225 0.021006937206316897 0.022463444328333977 0.0034959569005226015 -0.0079918532614644527 0.024499794108574769 0.0013176096157489505 0.025007172547509299 0.017491726354143325 -0.020807995893995835 -0.011895876944695358 -0.0041137798535784221 -0.0056859014291170918 0.029593328702983829 0.0057830454081519963 0.000245937094556397 -0.034682654115799197 0.0085503282333363548 -0.012957393581788254 -0.011402553908323159 0.0056130249331103306 0.034919711258241309 0.00396135770857939 0.0095500810001276845 0.021662289527450779 0.005234436413529533 0.033577420027420701 0.036185370000804934 -0.0029941658403417472
leaf_count=2363 5675 21283 23726 65520 2772 15528 25865 36875 6924 1724 2336 638 14702 7274 4123 38128 7057 14451 18994 3199 34743 2611 2081 70970 1348 1373 6893 3859 7882 10368 17907 4672 2010 7141 937 7591 23178 979 2263 919 5375 48289 19446 1468 6539 1147 3411 1150 1370 18457 20889 27972 18237 2519 1598 2186 416 3872 223 120 9845
internal_value=0 -0.0244785 -0.0706057 -0.109058 0.0206433 0.0107768 -0.0367646 -0.0152947 -0.157241 0.195129 0.0523572 -0.0611414 0.11646 0.0220573 0.0251819 0.0077034 -0.0601336 -0.0821609 -0.0736944 -0.088942 -0.137096 0.100767 -0.0337673 -0.0954412 0.0846621 0.241167 0.0479316 -0.119712 -0.0322443 0.00306287 -0.00961359 0.0169878 -0.0174926 0.14451 0.0215677 0.077527 -0.110998 0.0717868 0.0276737 0.113745 0.0811236 -0.129374 -0.14271 -0.228853 -0.121013 0.18706 -0.0479607 0.119498 -0.0757303 0.0600934 -0.0654566 -0.0506967 0.0206896 0.267214 0.0986346 0.139945 -0.00297432 0.0423596 0.073023 0.136606 -0.0730872
internal_count=723411 703712 424948 232814 278764 261290 192134 176832 145506 19699 84458 157760 17474 58727 34374 102598 87308 72042 147627 126623 48339 25731 43051 123424 23120 6883 10133 78518 23703 15266 43862 25955 21004 12816 12903 14865 94148 21772 59547 3182 10648 74659 67735 66988 41282 2991 29276 6525 15821 20793 74234 53345 56365 3892 2535 2824 7309 6176 4095 1844 37817
shrinkage=0.122283


Tree=9
num_leaves=62
num_cat=0
split_feature=93 44 66 86 82 94 67 67 92 88 14 39 82 54 60 68 19 67 39 93 88 67 86 24 89 92 88 10 72 88 67 43 80 91 89 94 88 88 29 88 79 86 86 38 44 12 68 92 68 14 54 89 68 85 92 5 68 68 67 13 69
split_gain=19075.8 7245.68 2135.65 2170.5 1994.19 1432.81 1167.52 1126.25 1084.84 1016.22 980.513 840.023 880.128 809.832 730.592 724.974 564.666 554.661 546.861 531.399 462.979 460.617 460.592 454.763 429.498 357.766 348.802 398.982 537.566 342.519 337.727 312 328.234 300.93 293.552 280.487 275.84 275.7 274.08 337.335 267.375 258.328 252.162 241.374 235.325 228.558 223.05 214.389 212.838 210.682 207.633 203.856 202.44 201.929 198.191 196.876 195.497 193.137 189.373 185.14 182.12
threshold=1.0000000180025095e-35 0.0071035000000000013 13.506487500000002 31.500000000000004 -18.800437499999997 31.500000000000004 15.807130000000003 15.888579500000002 2.5000000000000004 1.0000000180025095e-35 30.500000000000004 0.023408500000000002 -9.865000499999999 0.0052345000000000004 0.31126700000000002 12.776528000000001 16.500000000000004 18.921491500000005 0.040679500000000007 75.500000000000014 11.500000000000002 26.871358000000004 33.500000000000007 1.5000000000000002 65222.500000000007 40.500000000000007 31.500000000000004 42.500000000000007 -3.7677889999999996 31.500000000000004 17.824094000000006 0.11882350000000001 -12.460450499999999 12.500000000000002 60974.500000000007 2.5000000000000004 2.5000000000000004 5.5000000000000009 31.500000000000004 1.5000000000000002 -17.707684499999996 19.500000000000004 20.500000000000004 0.098387000000000016 0.027402500000000003 7.5000000000000009 12.937097000000003 13.500000000000002 14.280881000000003 908.50000000000011 0.0033005000000000005 62694.500000000007 18.176850000000005 1.5000000000000002 2.5000000000000004 0.96875000000000011 15.963069500000001 17.547087000000005 14.149868000000003 4.5000000000000009 28.874683000000001
decision_type=2 2 2 2 2 2 2 2 2 2 2 2 2 2 2 2 2 2 2 2 2 2 2 2 2 2 2 2 2 2 2 2 2 2 2 2 2 2 2 2 2 2 2 2 2 2 2 2 2 2 2 2 2 2 2 2 2 2 2 2 2
left_child=1 4 3 9 7 35 20 10 49 18 33 14 21 -12 26 17 -8 29 -3 -7 43 31 38 55 25 30 27 34 50 44 52 32 45 -1 -6 -2 -30 58 39 -14 -10 -21 -17 -5 -11 -13 -15 57 -24 -4 -29 -9 -20 -42 -22 -16 -39 -18 -25 -19 -37
right_child=5 2 8 6 11 19 16 51 40 15 13 12 22 46 23 42 47 59 24 41 54 -23 48 37 -26 -27 -28 28 36 -31 -32 -33 -34 -35 -36 60 -38 56 -40 -41 53 -43 -44 -45 -46 -47 -48 -49 -50 -51 -52 -53 -54 -55 -56 -57 -58 -59 -60 -61 -62
leaf_value=-0.0242741146386098 0.010252897992379524 -0.0066923258400194818 0.017525449099143341 -0.011719241199938628 -0.0044245663179606201 0.018174009816121123 -0.0058087374492307069 -0.0048707573180450121 0.019015317527075148 -0.0014465408540573616 -0.02870751564901089 -0.0022913913162869557 0.0061542788893080048 -0.017427454913405523 -0.016202471470422707 0.029079508847321356 0.00358319475718177 0.023384290616517214 0.00051043455152225152 0.034220336288690256 0.005251608868858444 0.0098021345965910184 -0.0027709506524138255 -0.018533579434259383 0.026844718184539238 -0.0056717641279725173 0.010855140622722052 -0.01940942856968126 -0.0097910559181291039 0.022057637431959431 0.011348432867756827 0.019562758611696603 -0.014664670143795489 0.0092897994291216337 0.010538180012020852 0.015194717231649668 -0.00030718739510729134 -0.00499240754415416 -0.0058159852920004968 0.023301601804409829 0.039709414139427406 0.025718819853928852 0.014836034236320142 -0.0060834619869107164 0.0069866572089780079 -0.010733288439645427 -0.0046860840814915818 -0.00030812220925701387 0.012795991418289453 0.030546412655651289 -0.008338390096235786 0.022167869265537009 0.020844441151517571 0.0044822126594877797 -0.0050379456028622604 -0.028424125174846823 0.022648291969567594 0.011960623799707323 -0.007350957604892067 0.010396291253966771 0.024200762957738181
leaf_count=935 8447 20058 2848 53510 13649 3493 30167 13608 2057 16154 51996 18487 3714 67684 13057 1686 24709 1850 23507 1871 7135 2061 15639 18046 850 9596 1756 27101 17663 960 7517 543 24671 2710 2259 5669 8399 6633 1462 1634 153 3364 4804 48648 11508 17212 4736 21024 1348 1849 7741 305 707 19286 10014 16925 355 5160 6834 3431 2216
internal_value=0 -0.0252996 0.0133716 0.0019281 -0.0741516 0.17129 -0.0258255 -0.127521 0.100549 0.0432547 -0.150753 -0.0521011 -0.0240591 -0.16437 -0.0770819 0.0822079 0.0063495 0.0583669 0.0089405 0.220268 -0.0578777 -0.0583359 0.0213873 -0.125512 0.0301886 0.0227033 -0.0532934 -0.0590653 -0.0776273 0.0335537 0.0404636 -0.0686611 -0.073212 0.0290881 -0.00647472 0.11964 -0.0438893 -0.0890417 0.0800951 0.104995 0.0570901 0.245796 0.16762 -0.0720537 0.0225841 -0.0492982 -0.133449 0.0249084 -0.0109084 0.201051 -0.130377 -0.0296713 0.0126438 0.0414207 -0.000291196 -0.185225 -0.0115409 0.0435108 -0.116469 0.13867 0.14807
internal_count=723411 698351 329188 302995 369163 25060 200367 141974 26193 102628 128061 227189 86771 124416 140418 40393 81060 33903 62235 8728 119307 62974 23797 61850 42177 41327 78568 76812 60904 28622 31731 60913 60370 3645 15908 16332 26062 31868 6810 5348 21496 5235 6490 102158 27662 35699 72420 50893 16987 4697 34842 13913 24214 19439 17149 29982 6988 29869 24880 5281 7885
shrinkage=0.122283


Tree=10
num_leaves=62
num_cat=0
split_feature=93 44 66 86 82 67 14 94 67 92 88 67 39 82 54 88 89 10 93 60 68 48 94 68 80 86 90 95 54 89 89 90 54 67 67 95 68 10 86 70 87 92 89 13 77 86 85 19 15 38 92 12 89 76 68 86 86 13 69 49 67
split_gain=15773.6 6212.28 1758.89 1814.19 1694.06 1284.51 1577 1251.56 979.78 917.84 848.23 673.981 645.499 601.768 588.229 552.479 538.66 520.677 485.081 481.159 455.559 391.212 384.783 321.835 311.182 299.066 295.266 291.124 271.025 263.59 254.53 244.158 244.154 238.218 235.814 235.15 225.852 222.165 220.934 220.682 200.492 199.723 198.119 195.701 193.431 217.185 192.634 192.472 191.899 190.175 186.447 172.904 167.794 162.68 162.207 161.472 160.47 159.582 157.665 156.843 155.866
threshold=1.0000000180025095e-35 0.0071035000000000013 13.506487500000002 31.500000000000004 -15.320174499999998 11.890730000000003 30.500000000000004 31.500000000000004 15.807130000000003 2.5000000000000004 5.5000000000000009 18.213637500000001 0.023408500000000002 -9.865000499999999 0.0052345000000000004 16.500000000000004 65121.500000000007 565.50000000000011 75.500000000000014 0.99959950000000009 10.265777000000002 0.10128200000000002 18.500000000000004 17.193562000000004 -16.570242499999996 32.500000000000007 45813.500000000007 92.842716410890816 0.027031000000000003 22923.500000000004 52968.500000000007 61305.500000000007 0.0037425000000000006 19.360787000000006 19.360787000000006 13.050551948051952 14.827565500000002 195.50000000000003 24.500000000000004 -13.071832999999998 22.500000000000004 83.500000000000014 18047.500000000004 6.5000000000000009 -22.210329999999995 25.500000000000004 1.5000000000000002 19.500000000000004 29.500000000000004 0.22902100000000003 1.5000000000000002 3.5000000000000004 221.50000000000003 -18.548977499999996 12.827715500000002 28.500000000000004 17.500000000000004 3.5000000000000004 18.915523000000004 0.023123000000000001 26.269375000000004
decision_type=2 2 2 2 2 2 2 2 2 2 2 2 2 2 2 2 2 2 2 2 2 2 2 2 2 2 2 2 2 2 2 2 2 2 2 2 2 2 2 2 2 2 2 2 2 2 2 2 2 2 2 2 2 2 2 2 2 2 2 2 2
left_child=1 4 3 10 5 6 30 35 21 48 11 16 15 24 -8 17 23 25 53 31 33 59 44 28 55 40 -23 32 -3 52 -1 47 -19 43 57 -2 -16 -24 58 -11 -6 -30 -25 50 -15 -46 -41 -10 -4 -26 -12 -32 -13 -9 -18 -14 -22 -7 -20 -5 -31
right_child=7 2 9 8 12 34 14 18 19 39 20 29 13 22 36 -17 54 27 38 -21 56 26 37 42 49 -27 -28 -29 41 60 51 -33 -34 -35 -36 -37 -38 -39 -40 46 -42 -43 -44 -45 45 -47 -48 -49 -50 -51 -52 -53 -54 -55 -56 -57 -58 -59 -60 -61 -62
leaf_value=-0.0023704794210500629 0.0099904323048786697 -0.0069027903790640083 0.014577699962517046 -0.013750069916981076 -0.0047664532551227653 0.024375642112755672 -0.027326766515730874 0.023179881429482335 -0.0035583587848656353 0.016691223784241097 0.023763967179444546 -0.0093074172011914629 0.016422313230899457 0.014716570650566226 -0.017706016848285652 0.002844438928500516 0.011436243070817592 -0.019836928483837984 0.027487203806786813 -0.0060308439967876647 0.037674466121489704 -0.0079830188566274388 0.027730368783629486 0.00061262736591109496 -0.010952018976209827 -0.010273091914542272 0.000993237602552405 0.0042170454365536101 0.001588446303816737 0.012478807115689997 0.020959842222167294 0.011300566114054417 -0.010973922843875272 0.02073425709024795 -0.001047874226839341 0.017422235183283868 0.00026117962584221036 0.0070534504583795281 0.022703103844620855 0.037617039896495161 0.0063081015009267454 -0.0097502738492134967 0.02279103276277623 -0.0085481172174209554 0.0087449472297158413 -0.0026520234286634007 0.0038807709461445312 0.0032270929269311299 0.027766046970968947 0.0011948641473080717 0.0049407761125538569 -0.034475709299244414 0.0072605516026489495 0.011414609622300374 0.033213294046373569 -0.0016963966312364615 0.019758038254146692 -0.0098677430260067037 0.03585725647418761 -0.0077114104557315065 0.027100171363195598
leaf_count=5015 9272 24244 2476 25779 21879 246 61719 1219 14985 2648 767 1442 1127 1227 72526 8890 2767 28623 1731 25962 342 21101 378 1729 33124 31801 24189 2154 36763 4835 884 4821 20862 1441 11282 7060 2325 1439 2366 151 5963 5003 1028 2026 2695 18058 18697 35292 2221 3431 5718 189 10210 2274 295 4507 3285 28819 1138 48238 733
internal_value=0 -0.0237581 0.0131402 0.00228264 -0.0710486 -0.111904 -0.145504 0.16273 -0.0241984 0.0941457 0.0411315 0.0244699 -0.044474 -0.0152782 -0.16731 -0.0678599 0.00267672 -0.0794097 0.210865 0.0062324 0.112354 -0.0549012 0.0198844 -0.00716945 -0.0559768 -0.050634 -0.0233003 -0.118252 -0.0147143 0.0778551 0.0356534 0.0226779 -0.127865 0.0684404 -0.0497325 0.112697 -0.137899 0.118216 0.236628 0.0529554 -0.0171536 0.00338787 0.10419 0.0410836 0.00253877 -0.00602231 0.0368946 0.0140617 0.188429 -0.0754002 0.0670801 0.14345 0.0458372 0.139738 0.135658 0.0262159 0.188927 -0.0762854 0.258968 -0.0786184 0.126889
internal_count=723411 698351 329188 302995 369163 183005 142658 25060 200367 26193 102628 89049 186158 65986 136570 120172 71829 111282 8728 81060 13579 119307 23797 68767 42189 59643 45290 51639 66010 17220 6088 55098 49485 9952 40347 16332 74851 1817 5235 21496 27842 41766 2757 8511 21980 20753 18848 50277 4697 36555 6485 1073 11652 3493 3062 5634 3627 29065 2869 74017 5568
shrinkage=0.122283


Tree=11
num_leaves=62
num_cat=0
split_feature=93 44 38 82 94 13 67 14 88 66 54 92 67 67 39 92 88 82 14 94 13 85 86 93 63 68 91 86 90 92 80 95 54 93 88 86 64 92 69 89 29 37 89 88 87 67 88 85 89 16 67 89 69 37 68 43 86 89 17 60 86
split_gain=13033.9 5488.69 1545.65 1435.91 1114.21 1057.39 1037.86 1314.17 976.228 873.746 749.412 741.574 593.697 593.24 572.506 555.215 453.052 448.828 438.836 415.006 361.224 655.208 312.711 305.074 297.514 296.689 275.778 270.227 249.829 248.298 248.09 238.861 237.579 234.702 233.245 346.018 232.479 211.105 198.894 192.215 190.887 188.061 186.844 185.723 182.449 179.824 179.451 177.182 174.567 172.691 165.114 164.1 170.379 150.794 150.215 147.439 142.975 135.647 135.521 132.01 128.862
threshold=1.0000000180025095e-35 0.0071035000000000013 0.24025950000000004 -14.777974499999997 255.50000000000003 6.5000000000000009 15.888579500000002 30.500000000000004 5.5000000000000009 10.828645500000002 0.0052345000000000004 5.5000000000000009 24.650432000000006 17.148771500000006 0.023408500000000002 1.5000000000000002 16.500000000000004 -9.865000499999999 631.50000000000011 5.5000000000000009 4.5000000000000009 1.5000000000000002 33.500000000000007 221.00000000000003 0.75218600000000013 4.5995360000000005 11.500000000000002 31.500000000000004 27021.500000000004 130.50000000000003 -16.570242499999996 92.842716410890816 0.0035980000000000005 8.5000000000000018 16.500000000000004 20.500000000000004 0.99955450000000012 5.5000000000000009 26.532469000000003 20605.000000000004 31.500000000000004 0.17445650000000004 49940.500000000007 1.5000000000000002 22.500000000000004 17.338466500000006 19.500000000000004 1.5000000000000002 22923.500000000004 2.5000000000000004 13.556004500000002 63789.500000000007 21.671370000000003 0.12220000000000002 14.214908000000003 0.11882350000000001 28.500000000000004 30857.500000000004 1.5000000000000002 0.45182250000000007 26.500000000000004
decision_type=2 2 2 2 2 2 2 2 2 2 2 2 2 2 2 2 2 2 2 2 2 2 2 2 2 2 2 2 2 2 2 2 2 2 2 2 2 2 2 2 2 2 2 2 2 2 2 2 2 2 2 2 2 2 2 2 2 2 2 2 2
left_child=1 3 5 6 19 8 7 26 12 13 -9 34 20 25 16 -10 18 30 27 -2 21 41 40 50 53 58 -1 44 -22 51 56 32 -20 -21 35 -4 -15 49 -17 -8 43 -3 -28 -19 -5 -35 57 -40 -14 -11 -6 52 -13 -12 -24 -32 -16 -27 -7 -29 -46
right_child=4 2 11 14 23 9 39 10 15 37 24 29 48 36 17 38 -18 22 31 33 28 -23 54 -25 -26 46 42 59 -30 -31 55 -33 -34 45 -36 -37 -38 -39 47 -41 -42 -43 -44 -45 60 -47 -48 -49 -50 -51 -52 -53 -54 -55 -56 -57 -58 -59 -60 -61 -62
leaf_value=-0.021627978542763188 0.010072817552958413 -0.0071462619761045211 0.025620573193430259 -0.0047151985742339966 0.0098110804006643071 -0.014730240498673145 -0.0062488261151232372 -0.025933065470655957 0.02784277439865809 0.0060869980862843526 -0.019308793010086495 0.00028739812794166081 0.0082212938960444654 0.0017384189575801613 0.017434063254641776 0.0051161481743898759 0.0023418169868898034 0.0055347671411404755 -0.020292881150963678 0.010870361712621514 -0.0072228077220963648 0.014125817769044176 -0.0027824318684663146 0.031593236585111324 -0.0023345845332353858 -0.0078921665619601979 0.0011097075770856177 -0.0082327223500442345 0.00036556978263456902 -0.0054692857853440857 -0.0093455803334289694 0.0031769856590767487 -0.010608303904743099 0.017233217987733331 0.0240699171301073 0.0079325769023487706 -0.0063892716290144484 0.0011684027152601536 0.031420815356269699 0.0043379461851794981 -0.0063683756781059741 0.0019956362803988143 0.018352077493396273 0.018683799834489114 0.011577287638692939 0.025505007098449505 0.0034289733964579724 0.011243715980712679 0.022470810193792511 0.018641374839310516 0.027392502270892616 0.021518302863042241 0.0083937040998098497 -0.013410594999531006 0.010813213433660452 0.014630164190888492 -0.0017064112654643934 -0.00099303367572177621 -0.0079002033566929735 -0.018553962697109076 -0.0056601754716997018
leaf_count=1319 10889 11591 1774 21022 1075 26364 18563 66427 1804 7277 40139 9219 4309 31456 887 9654 8549 3714 25468 2861 26013 7493 15623 2347 6547 40509 4672 24941 26411 4547 32368 1978 19009 4497 2272 8704 15891 12128 570 4470 1462 20430 1077 1634 3550 2878 5317 3142 1394 2645 513 756 14251 49959 1364 395 3328 12712 20555 8625 2073
internal_value=0 -0.0221527 0.0134249 -0.0683993 0.154222 9.75533e-05 -0.105479 -0.128306 0.0294489 -0.0231492 -0.145898 0.0749362 0.0108449 -0.0378384 -0.0417002 0.106064 -0.0648304 -0.0123487 -0.0762685 0.12415 -0.000273254 0.0282863 0.0177217 0.231566 -0.118885 -0.0612225 0.032227 -0.050176 -0.025856 0.0389096 -0.0525065 -0.116791 -0.12708 0.152948 0.136246 0.105242 -0.00223706 0.0456324 0.0719411 -0.0305956 0.0679555 -0.00386651 0.0609098 0.0882657 -0.0163295 0.1709 -0.0395783 0.135177 0.107739 0.0840824 0.146579 0.052945 0.0455766 -0.128896 -0.0115671 -0.0705415 0.0339221 -0.049937 -0.0930974 -0.0817941 0.0509498
internal_count=723411 698351 329188 369163 25060 287665 193173 170140 112811 174854 163072 41523 97641 152804 175990 15170 115215 60775 106666 21125 91938 39514 23797 3935 96645 105457 7068 60211 52424 28773 36978 46455 44477 10236 12750 10478 47347 22050 13366 23033 6810 32021 5749 5348 26645 7375 58538 3712 5703 9922 1588 24226 23470 90098 16987 32763 4215 53221 46919 33566 5623
shrinkage=0.122283


Tree=12
num_leaves=62
num_cat=0
split_feature=93 44 38 82 13 94 88 66 86 39 92 92 67 67 60 14 92 67 88 10 49 64 39 39 68 87 38 82 67 86 64 89 14 37 13 87 52 13 85 24 69 88 16 95 92 89 88 74 86 0 14 85 68 39 90 67 92 14 89 85 87
split_gain=11013.5 4900.09 1277.8 1230.52 912.892 785.686 784.299 730.636 709.752 599.775 584.131 557.628 518.431 511.162 562.23 492.397 454.215 451.296 333.629 496.324 330.786 300.141 276.665 272.85 259.749 254.004 235.033 230.876 260.284 223.275 214.252 207.116 288.62 206.085 203.639 189.485 185.296 181.702 203.817 178.026 177.825 177.082 170.584 163.521 161.836 158.342 158.207 151.54 150.483 145.078 143.014 142.888 141.298 139.479 138.852 132.399 131.581 129.635 143.354 129.342 135.031
threshold=2.5000000000000004 0.0079405000000000014 0.24025950000000004 -21.691201999999997 6.5000000000000009 30.500000000000004 5.5000000000000009 10.828645500000002 33.500000000000007 0.038329000000000009 32.500000000000007 5.5000000000000009 21.355859000000006 15.888579500000002 0.40982450000000009 30.500000000000004 1.5000000000000002 17.338466500000006 1.5000000000000002 120.50000000000001 0.0099390000000000017 0.73122000000000009 0.027126500000000001 0.007248000000000001 11.826252000000002 57.500000000000007 0.098387000000000016 -2.6698304999999993 11.236068500000002 20.500000000000004 0.9996695000000001 64729.500000000007 807.50000000000011 0.71825400000000006 3.5000000000000004 374.50000000000006 0.044543500000000007 4.5000000000000009 1.5000000000000002 4.5000000000000009 27.584402500000003 2.5000000000000004 2.5000000000000004 11.200502411383601 115.50000000000001 60974.500000000007 17.500000000000004 -10.217907499999997 31.500000000000004 4.5000000000000009 1126.5000000000002 1.5000000000000002 13.215120500000001 0.052025500000000009 42710.500000000007 35.832897500000009 12.500000000000002 163.50000000000003 586.50000000000011 3.5000000000000004 4.5000000000000009
decision_type=2 2 2 2 2 2 2 2 2 2 2 2 2 2 2 2 2 2 2 2 2 2 2 2 2 2 2 2 2 2 2 2 2 2 2 2 2 2 2 2 2 2 2 2 2 2 2 2 2 2 2 2 2 2 2 2 2 2 2 2 2
left_child=1 3 4 9 6 43 12 17 10 15 18 31 25 14 20 -1 -8 26 19 45 41 -11 -21 49 36 34 -6 28 47 52 -19 32 48 56 -3 44 -16 -27 -39 55 -18 50 -9 -2 -13 -5 -26 -20 -4 -17 -10 -42 -7 -36 -28 -15 -14 58 -12 60 -56
right_child=5 2 11 8 7 29 16 42 13 21 57 35 33 39 24 23 40 30 27 22 -22 -23 -24 -25 46 37 54 -29 -30 -31 -32 -33 -34 -35 53 -37 -38 38 -40 -41 51 -43 -44 -45 -46 -47 -48 -49 -50 -51 -52 -53 -54 -55 59 -57 -58 -59 -60 -61 -62
leaf_value=0.0034131334980620118 0.0091112202902950273 0.0096505870103270712 0.01730107434218324 0.0014307264909232912 -0.0098435602560967041 0.02574060350127573 0.026293589692434966 0.0024877834248684919 -0.011379070501566637 -0.015029868700383323 -0.023933430769373376 0.0052617778065196909 0.010471949695648877 -0.0052949509074014202 -0.022952438799270905 -0.031325903240840815 0.0051585904271052542 0.0018828831805425008 -0.012446468267637244 -0.011669361670968666 -0.0023704225618743726 -0.0048047591126846303 -0.00042609779573185574 -0.018029017932185087 -0.0095403721942331609 0.01252179066475511 -0.0081853688054100322 0.012757740801704186 0.0096977720635048337 0.020718554366021689 -0.0063974553486543795 0.030570228047002979 0.024121649982343736 0.017871739797921875 -0.0057013131574094131 0.014489836270566932 -0.014212081122760943 0.026102887936214233 -0.00041386155877122006 0.0045294612978214787 0.0303063270764488 -0.0055204727919887075 0.011326493199503485 0.016794673618658457 -0.0045776466682670358 0.013344952875132047 0.011217975153382746 0.0016862136526426361 0.0059358351310308342 0.0056825756801239654 -0.022943762012232388 0.01136966862045373 0.035527669312562273 -0.00038688903262070249 0.0080829980895980712 0.016725113925287326 -0.00055296070504106559 -0.01382319662252446 0.00040034344420306056 -0.0061314572634010864 -0.0022932286799077022
leaf_count=2025 6070 3710 2679 8180 53482 2224 1746 15831 21569 22053 1367 20545 4342 22705 25958 23395 9770 30022 7635 24887 21992 26408 10728 52339 6500 3946 18340 4272 5222 4917 15047 803 2010 3097 30117 3242 37518 640 11701 6463 495 12947 6045 5876 4832 2995 1063 6762 7088 471 7504 2808 612 34068 6225 422 3864 15775 4051 13592 10419
internal_value=0 -0.0190335 0.0161589 -0.0624009 0.0034508 0.161192 0.0312356 -0.0192391 -0.0457271 -0.113714 -0.013312 0.0728909 0.0140095 -0.0658975 -0.082123 -0.155451 0.101182 -0.0336258 0.00574903 -0.0192336 -0.0545875 -0.0729652 -0.0553037 -0.170861 -0.123157 -0.00113721 -0.0548317 0.0461243 0.0147481 0.202112 -0.000898351 0.127479 0.113214 0.0795394 -0.0146359 0.0413944 -0.138586 0.0432138 0.0122015 -0.0188164 0.0701528 -0.0861393 0.0444721 0.110532 0.0294442 0.0481051 -0.0388926 -0.0343204 0.080895 -0.243422 -0.113651 0.133068 0.234748 -0.0213272 -0.0316222 -0.0373972 0.0479788 -0.086907 -0.0289884 -0.0126481 0.0129392
internal_count=723411 703712 320506 383206 279307 19699 110304 169003 256515 126691 91874 41199 95485 164641 135051 78230 14819 147127 70681 46790 64012 48461 35615 76205 71039 84182 102058 23891 19619 7753 45069 12580 11777 11303 67895 28619 63476 16287 12341 29590 13073 42020 21876 11946 25377 11175 7563 14397 9767 23866 29073 3303 2836 64185 48576 23127 8206 21193 5418 30236 16644
shrinkage=0.122283


Tree=13
num_leaves=62
num_cat=0
split_feature=93 44 82 66 86 94 86 88 19 39 92 92 68 7 60 87 5 67 94 13 64 67 69 68 14 82 93 77 13 91 88 80 89 67 88 89 37 90 10 44 86 66 67 44 67 41 90 39 80 88 88 3 67 49 69 87 14 67 33 89 14
split_gain=9374.73 4235.18 1162.48 1087.35 1150.26 874.349 781.565 621.365 608.717 585.052 524.134 504.428 472.654 453.987 370.485 350.661 342.93 341.677 328.714 323.738 295.822 289.722 283.744 283.102 274.085 263.993 246.981 233.281 223.978 213.697 360.36 233.864 213.33 207.469 206.779 205.916 201.268 207.889 187.991 178.601 176.961 174.438 174.022 159.491 157.846 157.068 155.954 154.25 152.446 149.34 148.13 146.363 143.95 142.743 139.474 139.297 135.643 130.284 132.066 130.01 129.683
threshold=1.0000000180025095e-35 0.0080875000000000027 -24.187043999999997 15.894803500000002 31.500000000000004 255.50000000000003 33.500000000000007 1.0000000180025095e-35 23.500000000000004 0.024753500000000001 32.500000000000007 2.5000000000000004 12.991475500000002 0.39230750000000009 0.065639500000000017 1.0000000180025095e-35 0.85164850000000014 22.824468000000007 2.5000000000000004 4.5000000000000009 0.6749265000000001 19.360787000000006 11.769252000000003 16.765342000000004 30.500000000000004 -9.865000499999999 221.00000000000003 -21.678978499999996 3.5000000000000004 9.5000000000000018 3.5000000000000004 -4.4603304999999986 64401.500000000007 19.239259500000006 31.500000000000004 10321.500000000002 0.16516400000000001 64682.500000000007 10.500000000000002 0.0039070000000000008 22.500000000000004 3.0721245000000006 23.573250500000004 0.018052500000000003 35.832897500000009 0.0119115 49604.000000000007 0.052025500000000009 -14.801628499999998 32.500000000000007 12.500000000000002 2.5000000000000004 13.556004500000002 0.0046740000000000011 6.3539105000000005 4681.0000000000009 816.50000000000011 14.220088000000002 0.61250000000000016 60974.500000000007 163.50000000000003
decision_type=2 2 2 2 2 2 2 2 2 2 2 2 2 2 2 2 2 2 2 2 2 2 2 2 2 2 2 2 2 2 2 2 2 2 2 2 2 2 2 2 2 2 2 2 2 2 2 2 2 2 2 2 2 2 2 2 2 2 2 2 2
left_child=1 2 9 4 7 18 10 15 35 24 16 -5 21 14 49 28 22 23 -2 -17 -11 34 29 39 -1 27 52 44 -3 30 -4 -32 47 -20 43 57 -10 42 -21 -18 -14 51 -38 -9 -15 -29 -36 -30 -13 -8 -39 -27 -7 -16 -26 -41 -31 58 -6 -24 -12
right_child=5 3 6 11 8 26 13 12 36 20 60 48 40 25 53 19 17 -19 33 38 -22 -23 59 -25 54 41 -28 45 32 56 31 -33 -34 -35 46 -37 37 50 -40 55 -42 -43 -44 -45 -46 -47 -48 -49 -50 -51 -52 -53 -54 -55 -56 -57 -58 -59 -60 -61 -62
leaf_value=-0.001538253291409081 0.0077374461307642677 0.0097716917582975106 -0.0095422575063249093 0.022974210974955084 -0.01459390969710855 0.0081066485707836367 -0.0090201957416442078 -0.0029847724137604704 -0.0066754346553303612 -0.018026220407305941 -0.0030490045411861182 0.019633083666729747 0.025347384504383862 -0.0062890717912205138 -0.024917143925259119 0.014642278985866678 -0.014959703880851492 0.01261404735908467 0.013577223729749533 0.015294850518916605 -0.0073031171684022934 0.014806234711977237 0.0075336235492656197 0.019452928931806567 -0.034032673744075911 -0.0051467206087813583 0.02955145899084358 -0.014365774293670634 -0.0091810791188184759 0.0067369815674278317 -0.0065008032826170585 0.014970671582552915 0.012658034791078491 0.021634060359754639 -0.018062954014843639 -0.0020678860084589988 -0.00061027042217933478 -0.00064854155276287278 -0.0020286004265290033 -0.0064225824664621532 0.01223780289022243 0.0046417539932044711 0.0055060425597190906 0.005416071857339208 0.018217732475281891 0.024379029923031502 0.024200768580829039 -0.0015581792950710932 0.0054925815923301318 0.0097719268979982316 0.014539929870330379 0.014274358964913903 0.025726655663684581 -0.015017045674467896 -0.022116704961725259 0.013805562245132434 -0.016479512137026728 -0.0049006340982798201 -0.0064087119646398828 0.021061901450509547 -0.01351397716772553
leaf_count=1408 8447 3614 15112 2967 19131 1075 34660 10024 11508 20098 5690 1293 2116 29328 17064 5300 16155 1666 8712 1600 35581 4745 7325 663 13732 29446 2347 30008 15750 12440 4088 1044 1739 3966 207 48460 48251 2499 10781 13099 3958 5196 12288 17362 360 292 787 21541 13922 732 3218 750 513 31514 34675 1160 1292 34950 16845 1764 17153
internal_value=0 -0.0195765 -0.0610497 0.0145824 0.00645359 0.14061 -0.0464792 0.0400843 -0.0164886 -0.120142 -0.0124368 0.0961804 0.0739146 -0.0676756 -0.101906 0.00970385 0.005233 -0.039289 0.112437 0.0558092 -0.0872314 0.0525777 0.0283515 -0.0603496 -0.186725 -0.0478045 0.215195 -0.0715327 -0.0141721 0.00697962 -0.0274405 0.0559759 -0.0255145 0.134573 0.0337179 -0.0418837 0.0105577 0.0177558 0.00921379 -0.0733484 0.15137 -0.0214611 0.00928705 0.0242033 -0.0454034 -0.11172 0.157308 -0.0343405 0.0591316 -0.0660446 0.0812736 -0.0361263 0.133311 -0.144056 -0.204545 -0.0344177 0.0452794 -0.0599243 -0.0846662 0.0888935 -0.083802
internal_count=723411 698351 383495 314856 296674 25060 278001 99524 197150 105494 98651 18182 39199 179350 83970 60325 75808 32743 21125 17681 55679 33125 43065 31077 49815 95380 3935 59988 42644 33976 20244 5132 39030 12678 28380 119386 77764 66256 12381 30414 6074 35392 60539 27386 29688 30300 994 37291 15215 35392 5717 30196 1588 48578 48407 14259 13732 70926 35976 9089 22843
shrinkage=0.122283


Tree=14
num_leaves=62
num_cat=0
split_feature=93 54 89 7 82 68 94 14 19 67 54 88 89 10 66 90 60 24 85 92 67 67 92 93 68 37 69 19 92 88 37 60 24 89 66 67 90 13 86 87 86 10 87 88 92 37 79 92 69 13 82 90 88 88 68 87 69 12 79 68 13
split_gain=7984.19 3760.27 1361.76 1021.07 982.907 892.113 710.929 668.573 537.35 529.217 480.871 454.323 421.995 368.436 366.851 351.511 318.969 312.456 297.898 278.081 277.68 258.641 236.94 236.51 217.269 216.371 206.611 205.317 201.768 198.455 189.521 187.969 222.361 187.027 185.112 154.217 153.519 148.495 148.222 147.718 139.694 137.739 135.091 133.838 131.094 129.768 129.539 124.411 124.171 121.768 121.704 118.186 116.28 114.313 111.953 111.637 111.096 110.811 109.276 108.771 138.591
threshold=1.5000000000000002 0.012371500000000002 23430.500000000004 0.69047650000000005 -15.440560999999997 14.827565500000002 30.500000000000004 33.500000000000007 25.500000000000004 26.269375000000004 0.0038875000000000003 2.5000000000000004 63541.500000000007 42.500000000000007 12.971867500000002 64682.500000000007 0.35009300000000004 2.5000000000000004 2.5000000000000004 8.5000000000000018 20.317304500000002 15.888579500000002 4.5000000000000009 69.500000000000014 12.658903 0.41742450000000003 32.220453500000005 14.500000000000002 2.5000000000000004 33.500000000000007 0.46770850000000003 0.2757420000000001 3.5000000000000004 54103.500000000007 20.396058500000006 23.189929000000003 46017.500000000007 7.5000000000000009 24.500000000000004 6071.0000000000009 31.500000000000004 1277.5000000000002 12.500000000000002 26.500000000000004 66.500000000000014 0.19937900000000003 -6.0959714999999983 113.50000000000001 11.891962500000002 4.5000000000000009 -1.2038724999999999 65532.500000000007 10.500000000000002 3.5000000000000004 17.311439500000002 314.50000000000006 18.915523000000004 6.5000000000000009 -8.260906499999999 17.547087000000005 4.5000000000000009
decision_type=2 2 2 2 2 2 2 2 2 2 2 2 2 2 2 2 2 2 2 2 2 2 2 2 2 2 2 2 2 2 2 2 2 2 2 2 2 2 2 2 2 2 2 2 2 2 2 2 2 2 2 2 2 2 2 2 2 2 2 2 2
left_child=1 4 3 16 7 9 35 33 18 12 -9 13 14 -6 21 25 -3 49 19 43 41 31 37 58 29 47 -12 -20 45 30 46 -4 -33 -1 51 53 -16 -7 56 48 -23 54 -29 -5 -27 -17 -13 59 -14 -18 -31 -19 -53 -2 55 -15 -25 -47 -8 60 -10
right_child=6 2 5 8 11 22 23 10 15 -11 26 24 39 20 36 28 17 34 27 -21 -22 40 -24 38 -26 44 -28 42 -30 50 -32 32 -34 -35 -36 -37 -38 -39 -40 -41 -42 -43 -44 -45 -46 57 -48 -49 -50 -51 -52 52 -54 -55 -56 -57 -58 -59 -60 -61 -62
leaf_value=-0.0039795105404515961 0.0068993030407217331 -0.00088136550057524039 0.0045820810039575383 0.004614893550297189 -0.00083746474797894192 0.027953041675235636 0.017731167784239658 -0.025238743930816581 0.0092236733018345538 0.019371773451097599 -0.015753553555675308 -0.0087748864702807319 0.00057449487410843011 -0.0124585288671417 0.0027833350771204347 0.0041169568536112517 -0.0024400241125979534 -0.0060757666126285874 -0.010231535622286601 -0.0036140951217598885 0.00029593579339109245 0.0084996350967085858 0.010573982657548416 0.023674261358969256 0.0093646355647014849 0.0068314070929943755 -0.0054889536036372821 -0.0057536064647558567 -0.00042817231650560324 0.00021573742812194582 0.0087664545741105923 -0.0087604816229929737 -0.0010900302504826577 0.018293594229708124 0.014928599019095512 0.018324525689169611 0.016495174776465813 0.012217048143797024 0.019326186667930883 0.015333691058085873 -1.076740672390656e-05 -0.018065343402472154 0.003346356627499136 0.0364695322427631 0.00011051507582362462 0.027810209329570321 -0.0014894661476049442 -0.010168906707880492 0.0098647807547190859 -0.012529089283381561 0.019552811226292051 -0.013081055262328363 0.013636384824023644 0.014773105927460776 0.005466417293409449 -0.0031407529647875625 0.032010850384616506 0.013511298841018857 0.0021760286320576159 0.0076370672582075196 -0.0025798602774665825
leaf_count=3628 7313 22139 6910 20433 13840 2079 2008 51938 2770 2722 55568 29890 6371 57794 3750 1376 5565 36571 26826 23618 5616 8702 7532 1755 4013 21538 11390 13402 1987 2693 2687 25673 45225 728 1001 2727 3838 1947 2442 5500 10649 19569 7670 171 8196 1009 8626 4105 9695 54338 444 969 1422 3221 1248 6856 1160 1505 717 4069 24267
internal_value=0 -0.0173002 0.00539144 -0.0138833 -0.0747523 0.0395599 0.142704 -0.12407 0.00668666 0.0263089 -0.139676 -0.0503463 0.0201483 -0.0730276 0.0070136 0.0304431 -0.0514326 -0.0668479 -0.0197962 0.00594372 -0.0895221 -0.00212305 0.129843 0.185016 -0.013681 0.0200828 -0.110377 -0.0484515 0.105807 -0.0252077 -0.0365672 -0.0164794 -0.0270794 0.0343772 -0.033506 0.0946409 0.0880474 0.187121 0.204883 0.0718572 0.0383343 -0.1007 -0.0179459 0.0427588 0.0409953 0.139731 -0.0471577 -0.00605587 0.049925 -0.0938615 0.0691283 -0.041165 0.0525191 0.0775683 -0.0885319 -0.0929202 0.227233 0.169209 0.120932 0.00311523 -0.0085415
internal_count=723411 702068 425540 284947 276528 140593 21343 123252 162942 129035 118896 153276 126313 104923 104747 70822 122005 99866 92120 44222 91083 97159 11558 8082 48353 64945 66958 47898 5877 44340 41203 77808 70898 4356 39963 13261 7588 4026 5357 21566 19351 85467 21072 20604 29734 3890 38516 35211 16066 59903 3137 38962 2391 10534 65898 64650 2915 2514 2725 31106 27037
shrinkage=0.122283


Tree=15
num_leaves=62
num_cat=0
split_feature=93 44 38 82 13 86 88 94 66 69 89 88 92 67 31 92 67 67 60 10 88 14 13 85 67 54 92 95 65 88 68 90 92 69 85 39 69 91 93 82 68 89 69 85 89 67 62 91 64 89 63 88 62 90 89 24 14 92 88 88 10
split_gain=6847.3 3370.09 937.15 873.599 649.234 598.996 573.322 532.867 502.422 449.811 428.342 399.838 386.624 367.794 356.896 340.579 303.938 286.04 348.631 280.875 316.942 280.181 260.146 383.798 242.28 235.233 217.101 209.226 208.635 202.002 183.76 179.433 176.958 188.49 163.423 162.012 160.097 145.098 144.632 144.232 167.361 142.013 139.587 141.472 135.343 132.384 130.217 123.469 121.201 119.575 117.451 113.789 112.105 111.954 109.43 108.685 106.717 106.674 103.796 103.135 118.747
threshold=3.5000000000000004 0.0071035000000000013 0.24025950000000004 -24.187043999999997 6.5000000000000009 33.500000000000007 5.5000000000000009 338.50000000000006 10.828645500000002 29.042912500000003 64729.500000000007 8.5000000000000018 32.500000000000007 24.650432000000006 0.77500000000000013 1.5000000000000002 17.148771500000006 19.818390000000004 0.40982450000000009 181.50000000000003 2.5000000000000004 320.50000000000006 4.5000000000000009 1.5000000000000002 9.4851520000000011 0.0046205000000000005 1.5000000000000002 13.457738095238101 6.2443665000000008 1.0000000180025095e-35 4.5995360000000005 27021.500000000004 126.50000000000001 21.671370000000003 1.5000000000000002 0.027126500000000001 20.558853500000001 21.500000000000004 1186.0000000000002 -2.6698304999999993 13.487163500000003 31453.500000000004 23.041500000000003 1.5000000000000002 1747.5000000000002 8.7748975000000016 0.86708500000000011 24.500000000000004 0.9996695000000001 39747.500000000007 0.65086650000000013 31.500000000000004 0.47262650000000006 45813.500000000007 52968.500000000007 1.5000000000000002 163.50000000000003 66.500000000000014 20.500000000000004 21.500000000000004 1144.5000000000002
decision_type=2 2 2 2 2 2 2 2 2 2 2 2 2 2 2 2 2 2 2 2 2 2 2 2 2 2 2 2 2 2 2 2 2 2 2 2 2 2 2 2 2 2 2 2 2 2 2 2 2 2 2 2 2 2 2 2 2 2 2 2 2
left_child=1 3 4 9 6 12 13 27 16 21 11 32 19 22 17 -8 30 18 25 29 35 47 23 45 50 59 -13 -2 -23 37 -6 -24 33 -4 -28 -21 -29 -5 -9 40 46 -38 -17 57 -10 -3 -22 -1 -18 -15 -20 -41 -11 -46 -35 -26 -14 -44 -32 60 -7
right_child=7 2 10 5 8 14 15 38 44 52 -12 26 56 49 -16 42 48 -19 24 20 39 28 31 -25 55 -27 34 36 -30 -31 58 -33 -34 54 -36 -37 41 -39 -40 51 -42 -43 43 -45 53 -47 -48 -49 -50 -51 -52 -53 -54 -55 -56 -57 -58 -59 -60 -61 -62
leaf_value=-0.013097037736542408 0.0084591526963968267 -0.0059646183310526164 0.00031474477176144332 -0.004110227820493334 -0.0093592104468345916 -0.0093764936921627018 0.024021445616682784 0.019379829170765746 -0.0026626521289638229 -0.012676067723673903 0.026170526515775144 0.02411008217102532 -0.002610592386203041 0.0082690764486723651 0.0048986262643265317 0.0033799022654333825 0.0013316310956280194 -0.0014388430482266447 -0.020979319014725512 -0.010060866404392016 -0.0060293938252577719 -0.033857237638637752 -0.0063417840497908742 0.012268530228813163 -0.013575007774094693 -0.0027772010845681003 0.030151816585507644 0.012026150606763372 -0.018344093521086957 0.016394574779885183 -0.0046762185364441714 0.00063340776900636185 -0.0063966618081851643 0.0072232301250356257 0.0069797764146122612 -0.00094830161783011598 0.015126754861774767 0.0072530664520390146 0.029792241686727061 0.0068431408652031784 0.016964340154367648 0.024873895834256525 0.029140560022308481 0.0086838648089952297 0.002122369244910988 0.0023966966343045202 0.010167442503964856 0.0014115020358468709 -0.0052321216970311326 0.022802451083339201 -0.010501348370304647 0.0258109267075518 -0.002903844407478086 0.010172749747074267 0.020753295692372886 -0.006386724600871395 -0.012691022399264956 -0.0099148032623852262 0.003498107114716255 7.3073054228113953e-05 -0.019150294094421032
leaf_count=12100 6033 11070 12763 6714 47213 30468 1810 1506 4969 11496 1368 1458 5627 5078 6635 8132 32215 14340 35101 25918 13109 11929 26364 7496 20612 24110 286 4285 50435 3684 53833 26768 4242 16400 5008 11233 3025 7016 1536 2701 913 2206 739 4623 8323 21612 1575 3426 15738 806 8969 245 14736 9292 969 19658 16483 153 5010 2235 9614
internal_value=0 -0.0154623 0.0143939 -0.0559672 0.00295792 -0.0423301 0.0274999 0.143446 -0.0172234 -0.110144 0.0654752 0.055646 -0.0108292 0.0121006 -0.0624583 0.0904431 -0.0299214 -0.0684975 -0.0777604 0.00506383 -0.0158424 -0.141281 0.00261307 0.0284147 -0.107992 -0.0531122 0.122124 0.117102 -0.166224 0.050315 -0.0484491 -0.0210687 0.0337931 0.0437119 0.0796072 -0.0492981 0.137326 0.0246044 0.210812 0.0308048 -0.000498644 0.164399 0.0627977 0.105854 0.0377816 0.00222185 -0.0228284 -0.0698039 -0.00185109 0.0936709 -0.149599 0.0851238 -0.0493825 0.0546243 0.0683752 -0.0802699 -0.076876 0.203907 -0.029863 -0.0831296 -0.0926261
internal_count=723411 704820 333738 371082 291244 266960 114651 18591 176593 104122 42494 41126 95218 99194 171742 15457 154009 165107 150767 73108 55694 77890 93310 40178 84340 66427 6752 15549 62364 17414 106056 53132 34374 30132 5294 37151 9516 13730 3042 18543 15597 5231 13647 5515 22584 32682 14684 15526 47953 5884 44070 2946 26232 17615 17369 40270 22110 892 58843 42317 40082
shrinkage=0.122283


Tree=16
num_leaves=62
num_cat=0
split_feature=93 54 89 7 82 68 94 14 19 67 54 88 87 10 83 90 13 94 88 39 95 60 88 86 24 93 92 42 38 68 67 13 66 69 92 37 89 37 86 45 77 88 92 88 69 86 93 79 92 10 67 86 67 67 85 67 21 68 92 68 89
split_gain=5976.12 2940.28 1088.47 838.045 799.068 688.911 663.493 535.168 431.083 416.715 380.738 370.186 322.746 311.244 293.429 287.898 243.442 225.494 220.136 217.162 211.169 196.971 192.296 185.469 183.206 179.356 170.621 170.597 165.787 161.943 157.191 152.411 156.753 151.113 150.277 150.246 148.377 148.159 140.042 138.846 134.2 133.061 125.397 124.922 119.373 130.062 113.2 110.533 109.686 108.489 106.08 104.753 104.358 103.253 102.56 101.678 100.009 99.6347 94.1911 96.292 94.0089
threshold=1.0000000180025095e-35 0.012371500000000002 25950.500000000004 0.69047650000000005 -15.440560999999997 14.441828500000002 255.50000000000003 33.500000000000007 35.500000000000007 17.338466500000006 0.0034485000000000006 2.5000000000000004 1570.5000000000002 42.500000000000007 -8.0096054999999975 64682.500000000007 4.5000000000000009 7.5000000000000009 2.5000000000000004 0.014185500000000002 0.45000000000000007 0.33469350000000003 33.500000000000007 23.500000000000004 2.5000000000000004 221.00000000000003 1.5000000000000002 0.057417500000000003 0.15587050000000005 12.658903 26.548184500000001 4.5000000000000009 16.9142945 9.8276695000000007 62.500000000000007 0.54772750000000014 54103.500000000007 0.46770850000000003 32.500000000000007 0.076954000000000009 -7.6007984999999989 5.5000000000000009 1.5000000000000002 4.5000000000000009 25.826204500000006 27.500000000000004 14.500000000000002 -6.0959714999999983 1.5000000000000002 1256.5000000000002 27.228927000000002 28.500000000000004 20.317304500000002 13.556004500000002 1.5000000000000002 10.458052000000002 1.5000000000000002 10.040880500000002 4.5000000000000009 18.287637500000002 65121.500000000007
decision_type=2 2 2 2 2 2 2 2 2 2 2 2 2 2 2 2 2 2 2 2 2 2 2 2 2 2 2 2 2 2 2 2 2 2 2 2 2 2 2 2 2 2 2 2 2 2 2 2 2 2 2 2 2 2 2 2 2 2 2 2 2
left_child=1 4 3 14 7 9 17 36 16 12 -9 13 21 -6 31 34 40 -2 35 49 38 33 29 58 55 53 -25 -23 -20 37 51 -3 39 -4 50 -18 -1 47 56 -33 43 -16 -43 54 46 -46 -19 -13 -17 57 -10 -11 -21 -8 -5 -12 -14 -15 -7 -60 -29
right_child=6 2 5 8 11 23 25 10 15 30 24 22 20 19 41 48 18 44 28 52 -22 27 -24 26 -26 -27 -28 60 -30 -31 -32 32 -34 -35 -36 -37 -38 -39 -40 -41 -42 42 -44 -45 45 -47 -48 -49 -50 -51 -52 -53 -54 -55 -56 -57 -58 -59 59 -61 -62
leaf_value=-0.0038853908047954853 0.0079493008139033539 0.00027444796684096236 -0.00050012424738305524 0.0028488216763806226 -0.0006974007241258303 0.031329184336583007 0.0069692763969486649 -0.024532894821519213 0.0032976940062667253 0.01169848523749807 -0.017726859389422506 -0.0084806968428120019 0.013466953537440433 -0.01285940251326413 -0.0029258074530810335 0.018993538181390643 -0.0066227006559425976 0.0044914191541768457 -0.0019097126536271449 -0.0079141378456754636 -0.0016597334444612979 -0.005743411884613003 0.0092131192152776729 0.023639005248284075 -0.0048753528999009301 0.027017657993087949 0.0075348536912479879 -0.0002965368540636608 0.0061914653522880123 0.0076189402178553876 0.018455393467939143 -0.0083205257639980684 0.0029463544936761551 0.012176677499897301 -0.0017924132888385278 0.00055636088660423544 0.01695136643276186 0.0077374580983288069 0.0042844197123016216 -0.016147323388013776 -0.0020953587932408015 0.023014159515457048 0.0024080358833344587 0.02560592785991762 0.026093989691950925 0.013950072604816682 0.014927084139917415 -0.0013744976081585061 0.0056180043171385943 -0.019258275297911548 0.010452880697677467 0.0037858721363778591 0.0020690364565977885 0.023365697635057851 0.015644725594382177 -0.010455099624391555 0.031077487339374387 -0.002410854613192067 0.0081015794105328883 0.027064497605605684 0.010506732687243106
leaf_count=3615 11858 8844 3508 6257 13807 720 1075 47650 27425 5510 44568 29761 5086 43654 22837 2303 53339 1919 28608 21157 6100 35214 3431 1118 12332 2347 8158 39094 9316 3665 2262 72065 3520 3809 12825 11743 722 2673 5988 13739 5900 609 3244 376 1047 2025 4276 8617 1950 16867 4832 10872 3954 513 1420 14143 366 5095 1128 471 2084
internal_value=0 -0.0164302 0.00451122 -0.0129083 -0.0702565 0.0377855 0.12301 -0.117507 0.00645695 0.0248153 -0.132435 -0.047108 0.0101405 -0.0689619 -0.048017 0.036621 -0.0115321 0.0967508 -0.0213352 -0.0853432 0.0632657 -0.00389649 -0.0125646 0.120101 -0.106853 0.195551 0.088824 -0.0145445 0.00619411 -0.0240745 0.075755 -0.0645607 -0.0718951 0.0501349 0.0243706 -0.0405596 0.0317192 -0.0352296 0.0936458 -0.0777207 0.038366 -0.00753945 0.0563177 0.0679516 0.124528 0.161691 0.100951 -0.0453338 0.115813 -0.108186 0.03935 0.0589726 -0.0454866 0.119153 0.05137 -0.124078 0.130517 -0.0936565 0.187674 0.138016 0.00385228
internal_count=723411 698351 422640 291152 275711 131488 25060 123030 166294 119893 118693 152681 101249 104534 124858 49335 116959 21125 103006 90727 17540 83709 48147 11595 71043 3935 9276 76392 37924 44716 18644 98168 89324 7317 45082 65082 4337 41051 11440 85804 13953 26690 3853 8053 9267 3072 6195 38378 4253 65616 32257 16382 25111 1588 7677 58711 5452 48749 2319 1599 41178
shrinkage=0.122283


Tree=17
num_leaves=62
num_cat=0
split_feature=93 44 86 7 89 94 19 60 69 10 86 66 87 63 31 90 94 89 92 93 92 37 67 82 88 94 68 13 68 88 54 88 74 92 13 88 68 89 5 67 69 14 67 67 8 89 60 67 42 31 16 53 13 6 67 84 92 67 39 69 81
split_gain=5162.82 2627.06 743.962 694.466 675.762 596.426 554.745 476.404 403.296 362.399 356.906 333.271 331.258 277.055 269.45 257.757 242.3 213.913 211.64 208.236 203.813 198.081 192.766 198.833 178.629 175.399 172.659 169.827 167.279 166.695 165.36 160.677 156.756 150.913 195.71 146.778 142.33 138.336 150.222 178.833 145.743 130.72 122.2 120.444 117.931 115.308 115.141 112.3 109.868 109.115 107.206 104.097 112.371 103.814 102.64 100.779 99.8496 98.4646 97.4177 96.5244 95.0534
threshold=1.0000000180025095e-35 0.0080875000000000027 28.500000000000004 0.35416650000000005 47351.500000000007 141.50000000000003 25.500000000000004 0.065639500000000017 21.219780500000002 677.50000000000011 30.500000000000004 16.795123500000006 17.500000000000004 0.51100050000000008 0.67948750000000013 62840.500000000007 9.5000000000000018 65121.500000000007 1.5000000000000002 227.50000000000003 44.500000000000007 0.59729750000000015 28.010396500000002 -9.865000499999999 5.5000000000000009 2.5000000000000004 10.303564000000001 4.5000000000000009 18.416810000000002 33.500000000000007 0.0033005000000000005 8.5000000000000018 -31.001748499999994 11.500000000000002 6.5000000000000009 1.0000000180025095e-35 15.056200000000002 166.50000000000003 0.96875000000000011 21.964156500000005 11.891962500000002 210.50000000000003 17.824094000000006 20.317304500000002 0.77500000000000013 64007.500000000007 0.99928450000000002 15.480683000000001 0.14365050000000004 2.8750000000000004 2.5000000000000004 0.12200950000000001 3.5000000000000004 0.26785700000000007 11.099474500000001 -8.3298919999999992 7.5000000000000009 22.477970500000001 0.049074500000000007 11.769252000000003 -7.2350139999999987
decision_type=2 2 2 2 2 2 2 2 2 2 2 2 2 2 2 2 2 2 2 2 2 2 2 2 2 2 2 2 2 2 2 2 2 2 2 2 2 2 2 2 2 2 2 2 2 2 2 2 2 2 2 2 2 2 2 2 2 2 2 2 2
left_child=1 2 9 7 6 25 10 29 15 12 20 33 37 30 16 17 22 58 -13 47 21 26 23 44 42 -2 -3 -14 45 32 -9 46 -4 34 -8 -28 48 -1 40 51 -39 -34 -11 -27 54 50 -12 -7 -36 -17 -10 52 -40 -32 -5 -43 -42 -35 -6 -19 -16
right_child=5 4 3 14 8 19 11 13 28 24 31 18 27 -15 60 49 -18 59 -20 -21 -22 -23 -24 -25 -26 43 35 -29 -30 -31 53 -33 41 57 36 -37 -38 38 39 -41 56 55 -44 -45 -46 -47 -48 -49 -50 -51 -52 -53 -54 -55 -56 -57 -58 -59 -60 -61 -62
leaf_value=-0.018568143989170106 0.0061577923510151575 -0.0012592830138358259 -0.028618843997509 -0.014886463318835244 -0.0037561749704205019 0.0072083082445357572 0.010608471713503563 -0.023644321345373347 0.0072718615838733612 -0.015755921605003567 -0.0034580265626765034 0.023254325872844948 0.01709008173955389 -0.0071837461150241911 -0.00046501037919664958 0.0098819016240201361 0.0055638202974207249 0.0039693032542774268 0.0074123547080905579 0.025576905788950072 -0.0074458759440961956 0.012920343081676092 0.0043689843379493415 -0.0040061780185804896 0.001858157727039587 0.010939011334571543 0.00078081378404480661 0.0034817504421313437 0.026210805385195081 0.010498504153235432 -0.016511958748139693 0.0011644758634351204 -0.0023574396674666247 -0.0022754773591473188 -0.0031210637913683583 0.013273543017872218 0.0083769435670257558 -0.00097111805268122872 0.0095301108344549648 0.013250977744636013 0.015181860546871062 -0.022756267398732308 0.00021929222477217833 0.018426340254402197 0.0041385959209433391 0.019937512787634188 -0.0081026655284427065 0.022237203990341251 0.0042904254915023306 0.027017010436201375 0.024082873254107497 0.0098850944765339066 -0.014279121286836123 -0.0046388160925012615 -0.0086933078255923349 -0.0085266609275326134 0.0014428118397465173 0.0035435006505116378 0.0027473580137807765 0.018305556467320457 0.01164782354417479
leaf_count=2740 8447 25455 3902 26118 15345 1558 9168 38904 11651 19288 49160 1082 4902 20411 5661 3799 6231 2238 8075 2822 7980 3640 3800 34428 4409 8366 6461 7922 1104 883 60124 15501 18044 31991 17366 4005 6085 23796 965 686 3086 5950 1722 3210 1963 2620 52602 657 9927 705 781 819 13863 4530 43811 18642 3496 9405 16643 2067 2399
internal_value=0 -0.0154979 -0.0516174 -0.0669167 0.0135497 0.117547 0.0021476 -0.0990065 0.0562545 -0.00804813 -0.0179924 0.0272937 0.0108796 -0.127124 -0.0407159 0.030352 -0.0482457 0.0156466 0.0909774 0.180282 0.013926 0.0261797 -0.0544725 -0.0599629 -0.0740526 0.088741 0.0131318 0.0779114 0.109496 -0.0533661 -0.144767 -0.0363763 -0.0618219 0.0165506 0.0347706 0.0580387 0.0174554 -0.0110409 -0.00525758 -0.0557246 0.0129808 -0.0549959 -0.105011 0.108943 -0.0798898 0.0928076 -0.0454464 0.110786 0.000363963 0.119443 0.0729087 -0.0808684 -0.0979883 -0.126103 -0.0847856 -0.0835069 0.0710836 -0.00331976 -0.000298816 0.0950779 0.0379688
internal_count=723411 698351 383495 295801 314856 25060 257903 171390 56953 87694 164804 93099 62275 123969 124411 40797 116351 36293 9157 5037 47541 39561 110120 106320 25419 20023 35921 12824 16156 47421 103558 117263 46538 83942 42546 10466 33378 49451 46711 16333 30378 42636 21010 11576 71892 15052 101762 2215 27293 4504 12432 15647 14828 64654 69929 24592 6582 41396 31988 4305 8060
shrinkage=0.122283


Tree=18
num_leaves=62
num_cat=0
split_feature=93 44 88 86 86 7 39 60 36 94 89 14 38 87 60 67 67 13 85 54 89 67 13 66 92 67 68 92 94 88 94 68 67 9 69 91 84 14 63 88 90 13 85 40 92 93 67 86 53 93 68 76 2 92 86 13 10 68 85 29 65
split_gain=4496.06 2414.24 772.06 695.93 596.163 533.111 531.406 521.889 475.471 354.01 340.984 336.572 335.295 284.134 261.297 262.243 246.464 223.61 213.038 205.775 202.702 204.798 192.4 168.521 168.511 166.747 165.647 164.3 161.038 159.602 159.451 152.701 147.619 140.693 139.137 133.982 123.669 122.842 120.523 119.759 111.852 108.041 161.824 145.651 106.363 104.889 104.095 112.962 103.662 101.183 100.543 98.7014 96.7757 96.2369 96.105 93.8862 90.8184 87.5753 87.314 141.612 86.1426
threshold=8.5000000000000018 0.0054960000000000009 2.5000000000000004 27.500000000000004 33.500000000000007 0.35416650000000005 0.052529500000000007 0.065639500000000017 0.5058140000000001 538.50000000000011 62361.500000000007 908.50000000000011 0.16472900000000004 1.0000000180025095e-35 0.40982450000000009 19.239259500000006 12.155503500000002 4.5000000000000009 1.5000000000000002 0.0037425000000000006 586.50000000000011 22.658931500000005 4.5000000000000009 16.487973500000003 2.5000000000000004 12.925465000000001 15.876770000000002 12.500000000000002 4.5000000000000009 33.500000000000007 5.5000000000000009 15.188201000000001 15.413699000000001 0.96875000000000011 16.145730500000003 13.500000000000002 -16.609737499999998 1343.5000000000002 0.51100050000000008 9.5000000000000018 63222.000000000007 4.5000000000000009 1.5000000000000002 0.0058495000000000014 73.500000000000014 1.0000000180025095e-35 17.338466500000006 19.500000000000004 0.050463000000000008 1552.5000000000002 14.137145500000001 -7.6045394999999987 1.5000000000000002 1.5000000000000002 21.500000000000004 4.5000000000000009 232.50000000000003 17.193562000000004 1.5000000000000002 16.500000000000004 15.601410000000003
decision_type=2 2 2 2 2 2 2 2 2 2 2 2 2 2 2 2 2 2 2 2 2 2 2 2 2 2 2 2 2 2 2 2 2 2 2 2 2 2 2 2 2 2 2 2 2 2 2 2 2 2 2 2 2 2 2 2 2 2 2 2 2
left_child=1 3 6 11 12 7 17 29 24 30 20 13 16 31 28 23 -4 18 -3 -9 56 41 -15 45 26 48 60 39 -7 35 -2 33 -26 34 -1 36 -5 -37 -21 40 -14 42 -22 -43 -17 -16 47 -32 -19 -11 -45 55 -13 -10 -29 -23 -8 -12 59 -18 -6
right_child=9 2 4 5 8 14 10 19 53 49 57 52 27 22 15 44 58 25 -20 38 21 51 -24 -25 32 -27 -28 54 -30 -31 46 -33 -34 -35 -36 37 -38 -39 -40 -41 -42 43 -44 50 -46 -47 -48 -49 -50 -51 -52 -53 -54 -55 -56 -57 -58 -59 -60 -61 -62
leaf_value=-0.0023273012036178365 0.0078670457314064315 -0.0031650834843167906 -0.00083474120896340936 -0.022818653273391495 -0.0028591204063575463 -0.0022602413475370704 -0.0078985761929539003 -0.021768823737146802 0.019480855589004645 0.017995235962354091 0.010193750124632776 -0.016988821417804428 0.015223757823818204 0.015650968212676461 -0.01149618229445753 7.2291085072481235e-05 0.026778497089621701 -0.01306009898470427 0.0099363520477853424 -0.015172263230895327 0.0010646664100201512 0.014663266747290595 0.0019370102519189209 0.0071424963272088363 -0.0048087789524688986 -0.0032566894831674497 0.018145987075333363 0.017504886105779417 0.010207135909023777 0.010294295977310249 0.019618832226101154 0.018071555980855681 0.0011336734476754464 -0.01020552898404868 0.010152214646817953 -0.0013271640046686125 -0.0084269855793513877 -0.02696969141332816 -0.0070269554521069913 0.022748236342576205 -0.0083698091337547388 0.006455273706300048 0.012711057859198968 -0.0037059476966467063 -0.013226761606272765 0.0073912718782909942 0.020189539195155249 0.0093215863037613197 -0.0060993780079457412 0.028679858321117954 0.0031280407403364049 -0.019015270013575419 -0.0025325364555381963 0.0087133489533730863 0.0011022234886796749 0.0053555609076448053 -0.00077340028384814837 0.029670558428847665 0.0076341533746116675 0.006428062649948268 0.0062254940762878092
